-2.451567053794860840e-01;1.302441954612731934e-01;-1.434441059827804565e-01;-2.376283705234527588e-01;9.731332212686538696e-02;-9.857515245676040649e-02;-1.619649082422256470e-01;-1.991427689790725708e-01;7.296605408191680908e-02;3.095071613788604736e-01;-4.003362059593200684e-01;-5.033674463629722595e-02;1.193625256419181824e-01;3.231674730777740479e-01;-4.427376687526702881e-01;3.324285745620727539e-01;4.032693207263946533e-01;2.084740102291107178e-01;2.456590384244918823e-01;-2.211350388824939728e-02;-3.586653769016265869e-01;2.267899215221405029e-01;-3.012329638004302979e-01;1.851769536733627319e-01;-1.294531971216201782e-01;5.243156850337982178e-02;-3.945444822311401367e-01;-4.719531163573265076e-02;-1.362019032239913940e-01;-3.733336627483367920e-01;2.187323421239852905e-01;3.435658663511276245e-02;-1.294175982475280762e-01;-4.413815215229988098e-02;-4.982933104038238525e-01;-4.138393402099609375e-01;-3.588979365304112434e-03;-9.798704087734222412e-02;4.379480481147766113e-01;-2.062672674655914307e-01;-5.816543474793434143e-02;5.934500098228454590e-01;2.056611701846122742e-02;1.634522080421447754e-01;3.319097459316253662e-01
9.083262830972671509e-02;1.963277310132980347e-01;8.545804768800735474e-02;-8.164796233177185059e-01;-7.710979133844375610e-02;-7.098228335380554199e-01;-2.525830268859863281e-01;-7.322586774826049805e-01;1.293606217950582504e-02;4.847237467765808105e-01;-3.607057631015777588e-01;5.831269174814224243e-02;-1.986337900161743164e-01;-7.182271480560302734e-01;6.707467138767242432e-02;-6.298546791076660156e-01;4.288589060306549072e-01;1.540215164422988892e-01;-1.007719561457633972e-01;2.344818413257598877e-02;-2.662954665720462799e-02;-7.488208264112472534e-02;-2.390917241573333740e-01;-4.258993268013000488e-02;-4.888923466205596924e-01;2.665132880210876465e-01;-1.530645322054624557e-02;-5.068279057741165161e-02;9.252969175577163696e-02;-3.509720563888549805e-01;-9.824475646018981934e-02;-4.817693829536437988e-01;-7.821501493453979492e-01;2.275400795042514801e-02;1.601587086915969849e-01;5.188233852386474609e-01;3.877552971243858337e-02;-4.017691910266876221e-01;-8.374940603971481323e-02;9.183863550424575806e-02;-9.234723448753356934e-02;3.458662033081054688e-01;3.369688242673873901e-02;-7.202681303024291992e-01;-8.751445412635803223e-01
4.234483465552330017e-02;-1.257241219282150269e-01;-1.179269999265670776e-01;-6.826069355010986328e-01;4.883233085274696350e-02;-3.177370429039001465e-01;-2.496519237756729126e-01;-1.275576800107955933e-01;1.530365347862243652e-01;-7.802771031856536865e-02;-4.391728341579437256e-01;9.460011124610900879e-02;1.866063326597213745e-01;-5.321388319134712219e-02;-1.946282759308815002e-02;-5.321214795112609863e-01;1.359159648418426514e-01;-6.787692755460739136e-02;-1.380178779363632202e-01;4.992844164371490479e-02;5.141329392790794373e-02;-1.983519047498703003e-01;-2.349950522184371948e-01;-1.359969079494476318e-01;-7.987136952579021454e-03;3.606325760483741760e-02;-3.330027163028717041e-01;-4.779531061649322510e-02;-8.624672889709472656e-02;4.067274555563926697e-02;1.616552770137786865e-01;1.241239607334136963e-01;1.686166971921920776e-01;9.199521504342556000e-03;-2.817423343658447266e-01;-1.938056200742721558e-01;-1.531828641891479492e-01;-5.873690545558929443e-02;-5.006030201911926270e-02;-1.020046882331371307e-02;-1.444249153137207031e-01;4.400655161589384079e-03;-6.068092584609985352e-02;3.907918557524681091e-02;1.824944168329238892e-01
-1.063496693968772888e-01;4.986747801303863525e-01;1.339605003595352173e-01;1.007978245615959167e-01;3.474330306053161621e-01;2.844088375568389893e-01;-2.806302309036254883e-01;-4.835723340511322021e-01;-1.807424128055572510e-01;-3.689725100994110107e-01;5.220739245414733887e-01;1.414403505623340607e-02;4.469668865203857422e-02;2.844099104404449463e-01;-2.018268555402755737e-01;5.938339233398437500e-01;-1.985240876674652100e-01;-2.696700766682624817e-02;3.967976570129394531e-01;2.241474092006683350e-01;1.558898761868476868e-02;-1.107349246740341187e-01;4.720603227615356445e-01;5.340163707733154297e-01;3.032145202159881592e-01;-2.647930085659027100e-01;3.485211431980133057e-01;4.972205683588981628e-02;-4.192886352539062500e-01;1.277603507041931152e-01;3.473773598670959473e-01;-1.038244217634201050e-01;5.122700333595275879e-01;-1.633655875921249390e-01;-7.506568729877471924e-02;3.772641718387603760e-01;1.290413141250610352e-01;1.261066347360610962e-01;3.380397558212280273e-01;-4.483585059642791748e-01;-1.170824393630027771e-01;-1.377395838499069214e-01;-2.525263726711273193e-01;6.927528381347656250e-01;5.845643877983093262e-01
-1.807056665420532227e-01;9.381766617298126221e-02;-1.406640857458114624e-01;2.030258029699325562e-01;5.087811946868896484e-01;-5.589737743139266968e-02;2.315158694982528687e-01;3.695375025272369385e-01;-1.420288234949111938e-01;-2.353580892086029053e-01;-1.292795538902282715e-01;-2.066639959812164307e-01;-2.378530204296112061e-01;7.550451755523681641e-01;-3.717190921306610107e-01;-6.561719179153442383e-01;-6.274003982543945312e-01;-2.543716728687286377e-01;2.709707804024219513e-02;1.906675100326538086e-01;-5.918907001614570618e-02;1.903899461030960083e-01;-5.114292502403259277e-01;-4.342920184135437012e-01;-4.699847102165222168e-01;1.173109039664268494e-01;7.890493422746658325e-02;1.329495608806610107e-01;-1.828801184892654419e-01;2.696328982710838318e-02;2.300464063882827759e-01;-8.800742216408252716e-04;4.828366935253143311e-01;-4.362286627292633057e-01;-8.777552098035812378e-02;2.429638952016830444e-01;1.500755548477172852e-01;-9.320469945669174194e-02;-6.973350644111633301e-01;4.616819322109222412e-02;3.664277866482734680e-02;1.924441605806350708e-01;7.421009242534637451e-02;-4.065293073654174805e-02;4.932350516319274902e-01
2.841237001121044159e-02;5.631956085562705994e-02;2.424217909574508667e-01;3.573539480566978455e-02;-1.544201970100402832e-01;-7.843555510044097900e-02;3.233126923441886902e-02;4.566611051559448242e-01;5.347703583538532257e-03;-7.441673427820205688e-02;-5.827842354774475098e-01;1.076471339911222458e-02;-1.240983158349990845e-01;3.738830611109733582e-02;-1.885539293289184570e-02;8.286959677934646606e-02;9.138416498899459839e-02;2.685013459995388985e-03;2.655118890106678009e-02;1.806785315275192261e-01;-2.879889309406280518e-01;-9.370872378349304199e-02;-3.887028396129608154e-01;1.467813253402709961e-01;-2.463169097900390625e-01;1.157251521944999695e-01;1.355836093425750732e-01;-5.762612447142601013e-03;2.025687396526336670e-01;-1.731820702552795410e-01;1.317501813173294067e-01;1.279264390468597412e-01;2.276632189750671387e-01;-4.370832815766334534e-02;2.135282848030328751e-03;-1.038051024079322815e-01;1.590152382850646973e-01;1.177281290292739868e-01;7.610721141099929810e-02;-1.974903941154479980e-01;1.291286498308181763e-01;9.975168853998184204e-02;-8.421947062015533447e-02;-1.221933513879776001e-01;1.145312637090682983e-01
-3.999810200184583664e-03;-3.930359706282615662e-02;-3.547564446926116943e-01;-1.292284727096557617e-01;-3.431517481803894043e-01;1.881725937128067017e-01;-9.255980700254440308e-02;-6.355145573616027832e-02;-3.280498832464218140e-02;-2.521598897874355316e-02;3.686700016260147095e-03;-1.215750128030776978e-01;1.381367631256580353e-02;-1.145238652825355530e-01;2.778239846229553223e-01;-3.992170691490173340e-01;-3.179692327976226807e-01;1.877581477165222168e-01;2.763311266899108887e-01;2.260604202747344971e-01;-9.242963045835494995e-02;1.011661067605018616e-01;-1.527798324823379517e-01;-1.799368113279342651e-01;-4.255237877368927002e-01;-5.925122648477554321e-02;1.033019721508026123e-01;5.717741698026657104e-02;1.146886274218559265e-01;2.625226974487304688e-01;-2.842709720134735107e-01;-3.451390266418457031e-01;-4.784774780273437500e-01;-1.594455540180206299e-02;-4.694696664810180664e-01;1.121465638279914856e-01;-2.041403651237487793e-01;2.478334754705429077e-01;-1.434036940336227417e-01;1.197239905595779419e-01;-1.892108917236328125e-01;4.902470409870147705e-01;1.383102089166641235e-01;1.175729855895042419e-01;-4.291530549526214600e-01
-5.591196939349174500e-03;1.671357452869415283e-01;8.531339466571807861e-03;-1.433612853288650513e-01;-1.910910382866859436e-02;9.682545810937881470e-02;-5.488434433937072754e-01;2.067232131958007812e-01;2.751066721975803375e-02;-3.318632543087005615e-01;2.589676529169082642e-03;4.043127968907356262e-02;1.554545164108276367e-01;-5.695004388689994812e-02;-1.551073193550109863e-01;-2.332307100296020508e-01;8.834716677665710449e-02;-1.435560360550880432e-02;5.583575740456581116e-02;1.456901878118515015e-01;4.731693863868713379e-02;-7.086213678121566772e-02;1.502705365419387817e-01;-4.690592885017395020e-01;4.457759112119674683e-02;1.374824643135070801e-01;-2.099783867597579956e-01;-5.101666599512100220e-02;4.946323484182357788e-02;-3.691422343254089355e-01;-2.012790441513061523e-01;4.931699857115745544e-02;6.931604444980621338e-02;-2.432117760181427002e-01;-2.536487281322479248e-01;-6.595446169376373291e-02;1.177043840289115906e-02;6.341943889856338501e-02;-3.790391981601715088e-01;-2.706510424613952637e-01;8.927236311137676239e-03;-6.750594079494476318e-02;-2.360867559909820557e-01;-1.102894619107246399e-01;1.388719081878662109e-01
-4.702863991260528564e-01;1.743385642766952515e-01;5.140247941017150879e-02;1.917758136987686157e-01;1.334046125411987305e-01;-1.997444927692413330e-01;2.375810444355010986e-01;2.491357922554016113e-01;-4.311597347259521484e-01;3.063026070594787598e-02;-4.534695148468017578e-01;-1.269527524709701538e-01;-3.687121719121932983e-02;-2.427423000335693359e-01;-2.407414615154266357e-01;9.538535773754119873e-02;2.192218154668807983e-01;-2.122436612844467163e-01;-5.421807244420051575e-02;2.309021502733230591e-01;-2.783646285533905029e-01;3.456040518358349800e-03;-5.177745819091796875e-01;-9.524759650230407715e-01;-2.263195812702178955e-01;2.454691678285598755e-01;1.863494813442230225e-01;6.812325119972229004e-02;-2.730557322502136230e-01;-1.953599043190479279e-02;-6.595913320779800415e-02;-4.173653572797775269e-02;1.985408663749694824e-01;-5.358840823173522949e-01;-1.829289942979812622e-01;-6.653113663196563721e-02;-1.911452971398830414e-02;3.304759860038757324e-01;-4.628409147262573242e-01;-1.173291578888893127e-01;-8.363891392946243286e-02;1.485179662704467773e-01;-1.834494620561599731e-01;-3.622999489307403564e-01;-1.636398285627365112e-01
2.325297594070434570e-01;-4.042297303676605225e-01;-2.779270410537719727e-01;9.814962744712829590e-02;-8.626837730407714844e-01;-1.257986277341842651e-01;-2.008531941100955009e-03;-2.255084365606307983e-01;-6.334064006805419922e-01;-8.245361447334289551e-01;-7.475692033767700195e-01;-9.327956289052963257e-02;4.147325158119201660e-01;-3.337942957878112793e-01;-2.493055760860443115e-01;-3.709954023361206055e-02;-5.335178375244140625e-01;-1.768324337899684906e-02;-1.305757835507392883e-02;1.488975137472152710e-01;-4.360284656286239624e-03;1.738163977861404419e-01;-6.318532824516296387e-01;4.379942715167999268e-01;-3.246940374374389648e-01;-5.825540982186794281e-03;-7.528926730155944824e-01;1.397612132132053375e-02;1.437088549137115479e-01;-4.495378732681274414e-01;-3.922857642173767090e-01;-7.221555709838867188e-02;-5.674184560775756836e-01;-5.213410258293151855e-01;-1.272194832563400269e-01;-3.206887245178222656e-01;-4.957195743918418884e-02;-1.299276202917098999e-01;-1.128162071108818054e-02;3.357654511928558350e-01;2.179104238748550415e-01;-3.624242963269352913e-04;5.024853348731994629e-02;4.010594785213470459e-01;-1.178634688258171082e-01
-1.690784394741058350e-01;2.375267297029495239e-01;4.233509004116058350e-01;1.661106199026107788e-01;1.164211779832839966e-01;-2.820248305797576904e-01;-3.824726045131683350e-01;1.055019646883010864e-01;-1.588510572910308838e-01;2.117033898830413818e-01;-4.532511234283447266e-01;5.216948688030242920e-03;-4.166775643825531006e-01;2.580062747001647949e-01;-9.053738415241241455e-02;1.893839612603187561e-02;-1.015573181211948395e-02;-3.159403055906295776e-02;-7.460236549377441406e-02;6.946973502635955811e-02;-6.011286377906799316e-01;8.800377696752548218e-02;-4.773347675800323486e-01;-3.780541121959686279e-01;-6.776613742113113403e-02;4.505275785923004150e-01;-2.922339439392089844e-01;-1.026856452226638794e-01;4.180041700601577759e-02;-5.665643885731697083e-02;-1.488436758518218994e-01;1.774693876504898071e-01;1.142909005284309387e-01;-6.977232694625854492e-01;4.838925972580909729e-02;-5.508237481117248535e-01;-1.998995691537857056e-01;2.582948505878448486e-01;1.588514745235443115e-01;1.762053668498992920e-01;-4.808156564831733704e-02;2.259576320648193359e-01;6.152242049574851990e-02;-1.955692470073699951e-01;3.182187378406524658e-01
-7.226909510791301727e-03;-1.817486137151718140e-01;3.301130831241607666e-01;-1.916710403747856617e-03;-1.265780627727508545e-01;-3.808053582906723022e-02;-3.877980709075927734e-01;-2.589063644409179688e-01;-3.336741626262664795e-01;2.607908546924591064e-01;-4.266677051782608032e-02;1.609553545713424683e-01;-3.142834082245826721e-02;-8.804532885551452637e-01;-5.124495029449462891e-01;-1.037175059318542480e+00;1.183662191033363342e-01;8.784458041191101074e-02;-8.659565448760986328e-02;-1.437621116638183594e-01;1.938752830028533936e-01;-2.301744669675827026e-01;-1.907047331333160400e-01;-1.867100149393081665e-01;6.153215467929840088e-02;-5.746605247259140015e-02;-1.139143407344818115e-01;-3.745663911104202271e-02;2.726451754570007324e-01;-3.045838791877031326e-03;-4.706431031227111816e-01;-4.842180311679840088e-01;-3.565830290317535400e-01;-5.155687332153320312e-01;1.738303899765014648e-02;-6.050344184041023254e-02;9.759693592786788940e-02;-1.047616958618164062e+00;2.846442759037017822e-01;-1.042163819074630737e-01;-2.898752391338348389e-01;4.627302289009094238e-02;1.789787560701370239e-01;1.578015983104705811e-01;-9.131414294242858887e-01
-1.201528683304786682e-01;2.940041720867156982e-01;1.641497611999511719e-01;2.779353857040405273e-01;-1.556569188833236694e-01;-1.913766860961914062e-01;1.579195857048034668e-01;2.284684181213378906e-01;-2.063719034194946289e-01;-1.697818934917449951e-01;3.091124296188354492e-01;-3.978635743260383606e-02;-1.680293530225753784e-01;1.514194309711456299e-01;2.273143380880355835e-01;-6.468703746795654297e-01;7.864650338888168335e-02;-9.360067546367645264e-02;-1.589400917291641235e-01;1.515988260507583618e-01;-7.432723045349121094e-01;3.920776024460792542e-02;4.013298153877258301e-01;-2.610932588577270508e-01;-1.012560054659843445e-01;2.796414680778980255e-02;2.978585064411163330e-01;3.341076662763953209e-03;-1.794034391641616821e-01;-1.025626957416534424e-01;-5.397551655769348145e-01;5.601343140006065369e-02;1.991796679794788361e-02;9.616403281688690186e-02;-8.567748069763183594e-01;-7.347934693098068237e-02;-4.437280585989356041e-04;9.242350608110427856e-02;-1.300334632396697998e-01;3.216784819960594177e-02;-7.675086962990462780e-04;2.861180528998374939e-02;1.473920643329620361e-01;-6.711465120315551758e-02;2.195034027099609375e-01
4.021532833576202393e-01;9.885177016258239746e-02;9.550490230321884155e-02;-4.371839761734008789e-02;-5.181721970438957214e-02;1.955762058496475220e-01;-1.404945850372314453e-01;-9.624768048524856567e-02;5.422967486083507538e-03;2.144506424665451050e-01;6.066025793552398682e-02;6.783926486968994141e-02;-6.274490803480148315e-02;1.117305159568786621e-01;-4.282809793949127197e-02;3.183800578117370605e-01;-3.083199448883533478e-02;-4.691216722130775452e-02;7.011146843433380127e-02;1.853192597627639771e-01;-9.838435053825378418e-02;-1.263373494148254395e-01;6.136405840516090393e-02;2.980800271034240723e-01;2.213333845138549805e-01;-1.167287826538085938e-01;5.407704040408134460e-03;-3.312202543020248413e-02;-1.403460502624511719e-01;-7.532318830490112305e-01;-1.095021009445190430e+00;-9.827218204736709595e-02;-1.280606836080551147e-01;-7.997636198997497559e-01;-7.328112721443176270e-01;-6.330560892820358276e-02;-1.280301064252853394e-01;-4.322791099548339844e-01;-4.088742136955261230e-01;-1.315041333436965942e-01;-8.330405503511428833e-02;-1.590019613504409790e-01;5.439421534538269043e-02;-1.374248415231704712e-01;1.699260473251342773e-01
1.239053606986999512e-01;3.873008117079734802e-02;-1.432276070117950439e-01;1.295112967491149902e-01;8.202830702066421509e-02;-3.238225579261779785e-01;1.052629873156547546e-01;-2.343516945838928223e-01;-9.911786764860153198e-02;-2.375038415193557739e-01;1.135297268629074097e-01;-7.610812783241271973e-02;3.103593885898590088e-01;1.366678625345230103e-01;-3.328962028026580811e-01;2.653762698173522949e-01;7.230604439973831177e-02;1.728354245424270630e-01;-3.098182976245880127e-01;-1.960668116807937622e-01;-3.255641460418701172e-02;1.405997276306152344e-01;-1.017519161105155945e-01;1.068505421280860901e-01;-1.066742166876792908e-01;-9.780914336442947388e-02;-2.403832226991653442e-01;1.055137217044830322e-01;1.427839845418930054e-01;-2.277811430394649506e-02;-1.741688102483749390e-01;-1.508177071809768677e-01;1.086059957742691040e-01;1.850079372525215149e-02;-9.007251821458339691e-03;-3.635910153388977051e-01;-8.347746729850769043e-02;-7.435221225023269653e-02;-4.731380939483642578e-01;2.048836834728717804e-02;1.845120191574096680e-01;-2.037076205015182495e-01;2.701147198677062988e-01;-3.225600719451904297e-02;1.319842934608459473e-01
-4.574595987796783447e-01;1.699328869581222534e-01;3.496468067169189453e-01;6.182380020618438721e-02;-3.233140110969543457e-01;4.784042239189147949e-01;-4.461539983749389648e-01;-3.842022120952606201e-01;-8.106648176908493042e-02;-3.515995144844055176e-01;-4.805373847484588623e-01;2.575987875461578369e-01;-1.438005566596984863e-01;-4.547978639602661133e-01;1.415751874446868896e-01;-6.714316606521606445e-01;4.875781834125518799e-01;4.082627594470977783e-01;-2.279239445924758911e-01;-1.450105309486389160e-01;4.186837077140808105e-01;-1.361449062824249268e-01;-5.538086295127868652e-01;5.242083072662353516e-01;3.480953276157379150e-01;-5.987994745373725891e-02;5.682876110076904297e-01;-1.916074454784393311e-01;-1.968734413385391235e-01;-2.706342637538909912e-01;4.135230481624603271e-01;9.323451668024063110e-03;-1.598227173089981079e-01;-2.733787596225738525e-01;6.634196639060974121e-01;2.273599058389663696e-01;-2.245231531560420990e-02;-2.083758860826492310e-01;-2.312129437923431396e-01;-8.100761175155639648e-01;-5.730987191200256348e-01;-1.681074351072311401e-01;6.598000973463058472e-02;-2.427844107151031494e-01;-3.417197465896606445e-01
2.563835307955741882e-02;2.868015132844448090e-02;-3.779644072055816650e-01;-2.055298537015914917e-01;-8.839139342308044434e-02;3.232857957482337952e-02;-6.045123934745788574e-01;-2.165851742029190063e-01;1.752624511718750000e-01;1.053091958165168762e-01;1.468406170606613159e-01;4.685913026332855225e-02;-6.025622133165597916e-03;-2.273419052362442017e-01;-7.904649525880813599e-02;-3.626995086669921875e-01;-7.388472557067871094e-02;-6.770941615104675293e-02;-8.056823909282684326e-02;-7.224018126726150513e-02;-2.808053493499755859e-01;-6.907762587070465088e-02;-1.661054939031600952e-01;8.970317989587783813e-02;-5.263396352529525757e-02;2.234288454055786133e-01;-6.917795538902282715e-02;-1.983679644763469696e-02;-1.283859610557556152e-01;-2.375517040491104126e-01;-2.673071622848510742e-01;5.373503267765045166e-02;-3.248758912086486816e-01;-2.114688903093338013e-01;-3.375825881958007812e-01;-1.841355562210083008e-01;-1.919618248939514160e-02;-1.584844291210174561e-01;-2.732976339757442474e-02;1.076228320598602295e-01;-3.062309324741363525e-02;-1.064245551824569702e-01;-3.289251625537872314e-01;-1.689631938934326172e-01;-3.832819163799285889e-01
-1.112109422683715820e-01;-7.252542674541473389e-02;4.930875450372695923e-02;-7.051333785057067871e-02;2.177017331123352051e-01;-3.223554790019989014e-02;-6.987564265727996826e-02;2.089294791221618652e-01;2.921956479549407959e-01;-2.089066356420516968e-01;1.341081857681274414e-01;5.019814893603324890e-02;-4.705379903316497803e-02;1.871448755264282227e-01;1.547015160322189331e-01;-1.670955494046211243e-02;-1.274380274116992950e-02;2.300516366958618164e-01;4.971133768558502197e-01;7.167914509773254395e-02;1.351003199815750122e-01;-5.819308012723922729e-02;3.800737112760543823e-02;-4.213981702923774719e-02;4.355674982070922852e-02;1.001765429973602295e-01;-1.196712628006935120e-01;-5.397662147879600525e-02;-5.698831081390380859e-01;-6.020361930131912231e-02;-2.376862019300460815e-01;1.662569493055343628e-01;-3.827563673257827759e-02;7.986902445554733276e-02;-4.189839363098144531e-01;3.328559547662734985e-02;-3.445281460881233215e-02;-1.211559325456619263e-01;1.364064514636993408e-01;-2.840051352977752686e-01;1.628471463918685913e-01;2.127559036016464233e-01;1.107358112931251526e-01;5.177567005157470703e-01;2.504438757896423340e-01
1.873699426651000977e-01;-2.446927279233932495e-01;-1.786396652460098267e-01;-2.084351330995559692e-01;-8.226923644542694092e-02;2.181312739849090576e-01;-3.011158667504787445e-02;-2.720381915569305420e-01;-6.564096808433532715e-01;4.159081354737281799e-02;-7.230047583580017090e-01;6.864913552999496460e-02;-1.785125434398651123e-01;-3.052043914794921875e-01;-9.969902783632278442e-02;-6.955524533987045288e-02;-1.361011266708374023e-01;6.985912472009658813e-02;-4.667323827743530273e-02;-8.119218796491622925e-02;1.104278787970542908e-01;-1.615719050168991089e-01;-1.861482113599777222e-01;7.535593956708908081e-02;-1.904615610837936401e-01;1.756817549467086792e-01;-9.056945890188217163e-02;7.469296921044588089e-03;1.790345311164855957e-01;-6.423994302749633789e-01;-2.989940345287322998e-01;-1.294997632503509521e-01;-3.568608164787292480e-01;-1.709955558180809021e-02;-2.156614363193511963e-01;2.174400389194488525e-01;-3.874470293521881104e-02;-1.961458623409271240e-01;1.095902770757675171e-01;8.305639028549194336e-02;2.097937650978565216e-02;7.323201745748519897e-02;5.016198381781578064e-02;-3.321642056107521057e-02;-4.091434478759765625e-01
-1.580978780984878540e-01;7.015462964773178101e-02;-1.782625913619995117e-01;2.304112315177917480e-01;5.055098608136177063e-02;-6.892554461956024170e-02;-1.016554310917854309e-01;-6.107268333435058594e-01;-4.839119501411914825e-03;3.782205581665039062e-01;-1.886910200119018555e-01;-1.167321652173995972e-01;-1.833654791116714478e-01;-3.859260380268096924e-01;8.666320145130157471e-02;-3.975806832313537598e-01;-7.480120062828063965e-01;-2.634305655956268311e-01;-4.903819039463996887e-02;1.254876405000686646e-01;-1.387455612421035767e-01;2.380396611988544464e-02;-3.640170991420745850e-01;1.421545743942260742e-01;1.151064261794090271e-01;-1.754520088434219360e-01;7.020246982574462891e-02;1.078589186072349548e-01;-1.422930657863616943e-01;-3.532073199748992920e-01;-1.784554421901702881e-01;-2.617005109786987305e-01;-2.884537577629089355e-01;-3.286587297916412354e-01;-3.694652915000915527e-01;8.136991411447525024e-02;1.197620853781700134e-01;-3.145472705364227295e-01;1.281316280364990234e-01;2.572137303650379181e-02;-1.324020028114318848e-01;-1.116053611040115356e-01;2.247689664363861084e-01;-1.032050400972366333e-01;-6.128252744674682617e-01
-7.543522864580154419e-03;2.562851458787918091e-02;-2.623919211328029633e-02;1.578971445560455322e-01;1.000868603587150574e-01;-5.634819269180297852e-01;-3.130612522363662720e-02;6.272371858358383179e-03;-5.218024253845214844e-01;-2.984496355056762695e-01;2.582939267158508301e-01;6.260351091623306274e-02;9.578055888414382935e-02;8.480680733919143677e-02;1.280510276556015015e-01;4.737042635679244995e-02;-8.767564594745635986e-02;2.907587774097919464e-02;-5.137938857078552246e-01;-2.462767213582992554e-01;4.447121173143386841e-02;-3.978276997804641724e-02;-3.208594396710395813e-02;-7.078214883804321289e-01;2.580911815166473389e-01;5.635614320635795593e-02;-2.339363098144531250e-01;1.920012757182121277e-03;-2.245855331420898438e-01;9.625938534736633301e-02;1.225422695279121399e-01;1.979357302188873291e-01;1.185524016618728638e-01;1.495554447174072266e-01;-4.350028000771999359e-03;-2.793306410312652588e-01;-1.652387082576751709e-01;1.497444212436676025e-01;-6.244478747248649597e-02;1.262949854135513306e-01;-4.791638255119323730e-01;5.493612214922904968e-02;-1.410641968250274658e-01;-1.212901994585990906e-01;-4.614885151386260986e-02
2.285762876272201538e-02;-8.506838977336883545e-02;-1.422458440065383911e-01;-3.328378498554229736e-02;-3.024533092975616455e-01;-2.558408081531524658e-01;1.817919313907623291e-01;7.522260397672653198e-02;3.039753139019012451e-01;-5.510340258479118347e-02;-1.063339188694953918e-01;-1.698268055915832520e-01;9.474679082632064819e-02;5.020346492528915405e-02;-4.049376398324966431e-02;-9.222435206174850464e-02;-5.769338086247444153e-02;-1.744176894426345825e-01;-1.263058632612228394e-01;1.805126518011093140e-01;1.764177903532981873e-02;6.597972661256790161e-02;1.389365084469318390e-02;-9.514143690466880798e-03;9.766568988561630249e-02;7.166141271591186523e-02;-1.902205944061279297e-01;1.270006597042083740e-01;2.458486892282962799e-02;1.384094655513763428e-01;1.771020442247390747e-01;1.415428072214126587e-01;-1.979433745145797729e-02;-7.038652896881103516e-02;1.223253458738327026e-01;-7.236002087593078613e-01;-1.410954147577285767e-01;4.587357863783836365e-03;1.767058158293366432e-03;-3.790212050080299377e-02;-2.248950451612472534e-01;-3.435479709878563881e-03;1.858172416687011719e-01;-8.727573603391647339e-02;-1.069312840700149536e-01
-2.422707080841064453e-01;1.385142952203750610e-01;7.886572927236557007e-02;2.234815955162048340e-01;-7.283263653516769409e-02;1.076590269804000854e-01;3.613038063049316406e-01;2.516724169254302979e-01;1.803269684314727783e-01;5.368267893791198730e-01;-2.998123168945312500e-01;1.432340592145919800e-02;6.647483259439468384e-02;-3.280945420265197754e-01;-5.280188322067260742e-01;-9.200047701597213745e-02;2.751823365688323975e-01;-1.818264871835708618e-01;3.420623391866683960e-02;8.843255043029785156e-02;1.011357083916664124e-01;-4.713866859674453735e-02;-4.209631681442260742e-02;8.221466839313507080e-02;-9.992069005966186523e-02;-3.595107048749923706e-02;1.104747876524925232e-01;-7.668017409741878510e-03;-8.941330015659332275e-02;9.347032010555267334e-02;3.063168525695800781e-01;1.888975501060485840e-01;2.370719462633132935e-01;2.460882067680358887e-02;4.134552180767059326e-01;-2.316776663064956665e-02;6.773807108402252197e-02;2.303931564092636108e-01;2.271150648593902588e-01;-3.981554210186004639e-01;-1.538996994495391846e-01;7.616375386714935303e-02;5.182501673698425293e-01;7.575403153896331787e-02;2.050585113465785980e-02
8.067621290683746338e-02;1.304726898670196533e-01;8.342431485652923584e-02;1.532155722379684448e-01;1.042078360915184021e-01;3.255956470966339111e-01;5.226926878094673157e-02;1.357417181134223938e-02;6.809467822313308716e-02;4.138865694403648376e-02;7.638030499219894409e-02;-7.656064629554748535e-02;-6.600709259510040283e-02;-9.345138445496559143e-03;1.280697621405124664e-02;2.765994071960449219e-01;-2.054277807474136353e-01;2.229010500013828278e-02;5.918236076831817627e-02;2.443606257438659668e-01;-2.965990006923675537e-01;-5.173563584685325623e-02;-2.639724016189575195e-01;-6.312370300292968750e-03;2.097775340080261230e-01;1.136942058801651001e-01;1.813877671957015991e-01;9.857597947120666504e-02;1.214802712202072144e-01;-1.061960458755493164e-01;-1.689533591270446777e-01;-2.618327140808105469e-01;-1.845672279596328735e-01;-2.353629171848297119e-01;-2.648029923439025879e-01;2.824360430240631104e-01;-1.965883523225784302e-01;9.445878863334655762e-02;4.604370146989822388e-02;3.598519042134284973e-02;-1.401872336864471436e-01;-3.476419746875762939e-01;5.841612443327903748e-02;1.473198235034942627e-01;2.212212085723876953e-01
-3.203415125608444214e-02;2.284043580293655396e-01;8.616016805171966553e-02;1.939868032932281494e-01;1.222603991627693176e-01;-2.690744996070861816e-01;1.437438577413558960e-01;1.702956110239028931e-01;2.709325961768627167e-02;-6.873839348554611206e-02;1.906539499759674072e-01;5.471625551581382751e-02;-3.932842239737510681e-02;2.983514219522476196e-02;8.397193253040313721e-02;1.931858956813812256e-01;2.380595952272415161e-01;-7.193457484245300293e-01;-2.986646890640258789e-01;7.246269285678863525e-02;-1.267633736133575439e-01;2.445952035486698151e-02;1.161303669214248657e-01;-3.422553539276123047e-01;-2.891250252723693848e-01;1.938011944293975830e-01;5.375033617019653320e-02;-1.043974161148071289e-01;6.455409526824951172e-02;-1.886174827814102173e-01;1.690838038921356201e-01;3.306957483291625977e-01;-1.687117815017700195e-01;-3.060731589794158936e-01;2.226985991001129150e-01;-1.818861961364746094e-01;1.389768719673156738e-01;1.001462787389755249e-01;6.906880736351013184e-01;3.161364421248435974e-02;1.329950690269470215e-01;4.048276543617248535e-01;-1.859850287437438965e-01;-1.026984527707099915e-01;-1.487499773502349854e-01
7.095596194267272949e-02;-1.830126196146011353e-01;3.168741613626480103e-02;2.029776014387607574e-02;-2.655310928821563721e-01;3.036388754844665527e-02;-1.083112359046936035e+00;1.936753652989864349e-02;-5.263709276914596558e-02;-2.023318260908126831e-01;-7.605207562446594238e-01;-1.163891106843948364e-01;-5.742394924163818359e-02;9.267601184546947479e-03;-2.811456322669982910e-01;-1.575702279806137085e-01;7.657142728567123413e-02;-1.094730570912361145e-01;-5.306144952774047852e-01;1.044846400618553162e-01;-1.108882188796997070e+00;1.559472680091857910e-01;-3.014904260635375977e-01;5.338071286678314209e-02;-4.740249216556549072e-01;2.112058550119400024e-01;2.285095602273941040e-01;2.573942951858043671e-02;1.849259138107299805e-01;-2.854281663894653320e-01;5.854959413409233093e-02;-1.810274720191955566e-01;3.595936298370361328e-02;1.929268240928649902e-02;-6.478434801101684570e-01;1.512399762868881226e-01;1.831951141357421875e-01;1.419664621353149414e-01;-1.158992424607276917e-01;1.396936625242233276e-01;2.628681361675262451e-01;2.035109549760818481e-01;7.210918515920639038e-02;-1.001707836985588074e-01;-1.192974671721458435e-01
-1.110992506146430969e-01;-2.764451205730438232e-01;-1.676266938447952271e-01;-2.020694017410278320e-01;-1.854702979326248169e-01;-9.128493815660476685e-02;5.763477832078933716e-02;1.140907928347587585e-01;-5.013806223869323730e-01;-1.912894658744335175e-02;-4.904803931713104248e-01;-5.463533848524093628e-02;-2.044128999114036560e-02;4.672845453023910522e-02;4.567268118262290955e-02;1.609244793653488159e-01;1.529663056135177612e-02;-2.552562654018402100e-01;-5.824281275272369385e-02;4.277667030692100525e-02;1.881036907434463501e-02;-1.238117218017578125e-01;-1.643192470073699951e-01;-3.671627640724182129e-01;-1.375846266746520996e-01;-1.174652203917503357e-01;-1.094807758927345276e-01;1.308168768882751465e-01;-2.040966451168060303e-01;-3.931091427803039551e-01;-1.027468889951705933e-01;1.658766567707061768e-01;-8.052246272563934326e-02;1.878048330545425415e-01;1.346113532781600952e-01;1.635228693485260010e-01;-2.801115810871124268e-01;1.418606191873550415e-01;-2.015815824270248413e-01;1.695218235254287720e-01;9.415088221430778503e-03;-4.420388936996459961e-01;-6.318667437881231308e-03;-1.829312741756439209e-01;8.554358035326004028e-03
2.707434296607971191e-01;-6.924260258674621582e-01;6.712307222187519073e-03;-7.127979993820190430e-01;-6.396248936653137207e-01;2.914185635745525360e-02;-6.746452450752258301e-01;1.495721489191055298e-01;-4.593360126018524170e-01;-2.995957732200622559e-01;-7.015818357467651367e-01;5.999005958437919617e-02;2.644298970699310303e-01;-2.024417817592620850e-01;-4.103872776031494141e-01;-2.681638002395629883e-01;-2.720964550971984863e-01;-4.367011487483978271e-01;-7.394683957099914551e-01;1.513471156358718872e-01;-5.210459232330322266e-01;-1.063671410083770752e-01;-7.423157095909118652e-01;-6.084249615669250488e-01;-6.752395033836364746e-01;1.398853659629821777e-01;-3.222970068454742432e-01;-9.500873833894729614e-02;8.474145084619522095e-02;-1.724311113357543945e-01;-3.074001073837280273e-01;-2.062013745307922363e-02;6.490223854780197144e-02;-4.783590137958526611e-01;-5.676856637001037598e-01;-2.701808512210845947e-01;-1.583112925291061401e-01;2.436119131743907928e-02;-3.936835750937461853e-02;3.211881220340728760e-01;-2.677725069224834442e-02;-6.024345755577087402e-01;-1.464821249246597290e-01;-8.410333395004272461e-01;-1.213304251432418823e-01
-1.776316910982131958e-01;-2.961843460798263550e-02;1.679527610540390015e-01;-7.867359556257724762e-03;-1.481649093329906464e-02;2.767650783061981201e-01;-2.775525748729705811e-01;-1.628339588642120361e-01;-7.057296633720397949e-01;-1.026117205619812012e-01;-1.071884751319885254e+00;-2.192441001534461975e-02;-8.055643737316131592e-02;-1.222019717097282410e-01;-2.630079686641693115e-01;-5.481167882680892944e-02;4.858691990375518799e-01;-2.141484320163726807e-01;1.814498156309127808e-01;-8.200363069772720337e-02;1.862559616565704346e-01;-1.949169486761093140e-02;-1.198371410369873047e+00;-5.157154798507690430e-01;-1.297452896833419800e-01;-2.338632047176361084e-01;4.241082444787025452e-02;6.396836787462234497e-02;-3.207125961780548096e-01;-1.578578054904937744e-01;1.397614628076553345e-01;-4.718539714813232422e-01;-1.630939692258834839e-01;2.644823119044303894e-02;2.603833079338073730e-01;5.465795397758483887e-01;1.132971048355102539e-01;-3.017075657844543457e-01;4.595888257026672363e-01;-3.540342152118682861e-01;1.978373154997825623e-02;-8.606752380728721619e-03;-3.867076635360717773e-01;2.133457064628601074e-01;3.142940998077392578e-02
-1.454202383756637573e-01;9.844560921192169189e-02;9.839820116758346558e-02;-9.894365072250366211e-02;-5.716389417648315430e-01;8.135808259248733521e-02;-3.699601292610168457e-01;-8.901960402727127075e-02;-2.379098683595657349e-01;-7.171350717544555664e-01;3.464314639568328857e-01;-4.451927915215492249e-02;-1.951724439859390259e-01;3.442351222038269043e-01;1.368432492017745972e-01;2.167630046606063843e-01;-3.723987936973571777e-01;9.287320822477340698e-02;2.785627841949462891e-01;1.707847714424133301e-01;-4.031772911548614502e-02;3.720017848536372185e-03;5.061169862747192383e-01;-2.284547835588455200e-01;6.665145047008991241e-03;-1.237957775592803955e-01;2.421501725912094116e-01;3.768914937973022461e-02;4.715721588581800461e-03;-1.369550079107284546e-02;-1.177736371755599976e-02;8.424723893404006958e-02;-2.840763926506042480e-01;-3.806546330451965332e-01;9.695949405431747437e-02;6.731084734201431274e-02;-2.074377238750457764e-01;-8.378902077674865723e-02;-3.495664149522781372e-02;-1.443071961402893066e-01;5.669465661048889160e-02;8.512665331363677979e-02;-7.251245528459548950e-02;-2.286213487386703491e-01;2.867272198200225830e-01
2.513717412948608398e-01;-4.673094674944877625e-02;-5.324044823646545410e-01;-4.332091212272644043e-01;2.732769250869750977e-01;5.147498846054077148e-02;3.559326827526092529e-01;-2.636028826236724854e-01;-2.615190446376800537e-01;-8.507294058799743652e-01;4.303328320384025574e-02;5.557500943541526794e-02;2.612077891826629639e-01;4.718326032161712646e-01;1.514453142881393433e-01;2.112556695938110352e-01;-6.437664031982421875e-01;1.488901525735855103e-01;-1.690338850021362305e-01;6.449587643146514893e-02;2.715942263603210449e-02;-1.450332850217819214e-01;-7.569352388381958008e-01;3.381113111972808838e-01;-7.785660028457641602e-02;-3.233874216675758362e-02;-1.316372752189636230e-01;-3.394431993365287781e-02;2.536405920982360840e-01;-1.937602758407592773e-01;4.011645168066024780e-02;9.037603624165058136e-03;6.555978208780288696e-02;-5.782375931739807129e-01;7.924909889698028564e-02;-3.230274915695190430e-01;-2.046913802623748779e-01;-5.632598400115966797e-01;-6.132517382502555847e-02;3.396284952759742737e-02;5.091013014316558838e-02;-4.473100602626800537e-01;-2.905988693237304688e-01;-6.269627809524536133e-02;2.844946980476379395e-01
-1.028783991932868958e-01;-1.213799268007278442e-01;-1.866722293198108673e-02;3.500478565692901611e-01;-1.167359650135040283e-01;-2.837179601192474365e-01;2.570110559463500977e-01;-5.744913220405578613e-01;-2.494232803583145142e-01;-4.080314934253692627e-01;2.327276170253753662e-01;2.798069082200527191e-02;1.312788426876068115e-01;6.897038966417312622e-02;-3.083744943141937256e-01;2.193082869052886963e-01;-3.105522096157073975e-01;3.794316574931144714e-02;-5.488655343651771545e-02;-9.761749207973480225e-02;1.602169573307037354e-01;-2.216737344861030579e-02;6.793239712715148926e-02;-3.226147890090942383e-01;-2.960164844989776611e-02;-3.962993249297142029e-02;-4.075771570205688477e-01;-1.515148021280765533e-02;-1.180438324809074402e-01;3.262021541595458984e-01;3.943963944911956787e-01;2.032311856746673584e-01;2.824342548847198486e-01;-2.303436398506164551e-01;2.922688126564025879e-01;-4.597609043121337891e-01;-2.462999820709228516e-01;2.368992269039154053e-01;-3.275823295116424561e-01;9.956994652748107910e-02;9.725770354270935059e-02;-6.215611100196838379e-02;-1.384645402431488037e-01;1.272822320461273193e-01;8.093412220478057861e-02
-4.117231816053390503e-02;1.121853813529014587e-01;1.758370250463485718e-01;-1.629664003849029541e-01;-1.849417239427566528e-01;1.853928565979003906e-01;1.051937509328126907e-02;-3.549323379993438721e-01;2.556182257831096649e-02;1.895123273134231567e-01;-1.075893566012382507e-01;1.361935734748840332e-01;1.246279478073120117e-01;-1.668796837329864502e-01;9.766601771116256714e-02;-6.616867780685424805e-01;4.439289867877960205e-02;-3.736120881512761116e-03;1.880903244018554688e-01;-1.069704964756965637e-01;2.470378763973712921e-02;-7.386011630296707153e-02;2.406158447265625000e-01;-8.465464413166046143e-02;6.821085512638092041e-02;-1.064213141798973083e-01;1.390552371740341187e-01;-5.102836340665817261e-02;-1.454305052757263184e-01;-4.108844697475433350e-01;-1.751794517040252686e-01;-3.147819638252258301e-01;-1.958758533000946045e-01;1.374590862542390823e-02;1.083635017275810242e-01;2.138343155384063721e-01;-1.649388968944549561e-01;-3.155223131179809570e-01;-2.022460401058197021e-01;-9.609932452440261841e-02;2.168787419795989990e-01;3.826540336012840271e-02;-3.601462244987487793e-01;-5.616520345211029053e-02;-3.465787470340728760e-01
2.804274670779705048e-02;-1.517032682895660400e-01;5.320265516638755798e-02;9.476853162050247192e-02;-1.889966428279876709e-01;-2.199244797229766846e-01;3.537807613611221313e-02;-1.641376018524169922e-01;-1.343907564878463745e-01;1.744321435689926147e-01;1.999182254076004028e-02;1.073318999260663986e-03;1.462376415729522705e-01;-2.703570723533630371e-01;1.468384359031915665e-02;-4.122644364833831787e-01;-1.044566649943590164e-02;-3.754062652587890625e-01;1.396213620901107788e-01;8.120810985565185547e-02;-3.431160375475883484e-02;3.266193345189094543e-02;-2.254527360200881958e-01;-5.105070471763610840e-01;-2.489233165979385376e-01;1.558247506618499756e-01;-2.138522118330001831e-01;-3.942149132490158081e-02;9.537854790687561035e-02;1.091210991144180298e-01;-7.280220091342926025e-02;2.250045537948608398e-01;-2.580304741859436035e-01;-2.755177617073059082e-01;-2.013214081525802612e-01;-1.852041669189929962e-02;5.112656950950622559e-02;1.332127302885055542e-01;1.051398813724517822e-01;2.606584727764129639e-01;-2.713475823402404785e-01;4.963760077953338623e-02;-1.293805986642837524e-01;-1.173389628529548645e-01;-3.240051567554473877e-01
-2.739768326282501221e-01;2.627468705177307129e-01;-2.920308113098144531e-01;-8.157680183649063110e-02;3.447908461093902588e-01;-1.498325914144515991e-01;-6.644923985004425049e-02;-1.223064541816711426e+00;-9.111185073852539062e-01;-3.221614984795451164e-03;-1.157594397664070129e-01;-7.914396375417709351e-02;-5.386123061180114746e-02;4.246054291725158691e-01;-2.251335382461547852e-01;5.206917524337768555e-01;-5.222885608673095703e-01;2.240183800458908081e-01;3.310258090496063232e-01;7.314045727252960205e-02;-6.463760510087013245e-03;-1.823684126138687134e-01;5.980421323329210281e-03;-6.554833054542541504e-01;7.710753381252288818e-02;1.452197879552841187e-01;9.132685512304306030e-02;1.306973099708557129e-01;-2.773423492908477783e-01;1.753056198358535767e-01;-3.246102035045623779e-01;-7.863044738769531250e-02;2.513547539710998535e-01;-3.190739154815673828e-01;-1.980471163988113403e-01;2.600421011447906494e-01;1.284998655319213867e-02;1.169787943363189697e-01;2.990998327732086182e-01;-1.350685358047485352e-01;-4.254173934459686279e-01;4.416172504425048828e-01;6.754554063081741333e-02;-2.729568183422088623e-01;5.240228772163391113e-01
-1.476591080427169800e-01;-2.668788433074951172e-01;-1.682951301336288452e-02;2.775807380676269531e-01;2.607975006103515625e-01;-2.153669744729995728e-01;5.536283180117607117e-02;1.275603920221328735e-01;3.795125335454940796e-02;1.878875344991683960e-01;-5.266318917274475098e-01;-5.700721591711044312e-02;-2.711009085178375244e-01;-2.547806203365325928e-01;-8.563367277383804321e-02;-2.400892674922943115e-01;-5.570667982101440430e-01;-1.405291557312011719e-01;7.187913358211517334e-02;-1.689822524785995483e-01;2.830540537834167480e-01;4.919392522424459457e-03;-2.775436341762542725e-01;-2.502017319202423096e-01;-4.282611422240734100e-03;-1.473711431026458740e-01;-2.532642185688018799e-01;1.029531136155128479e-01;3.665044531226158142e-02;-3.297971487045288086e-01;-5.799613147974014282e-02;2.373891025781631470e-01;5.289357621222734451e-03;-5.688928365707397461e-01;2.240899801254272461e-01;3.211475536227226257e-02;-5.879345536231994629e-02;1.310659199953079224e-01;1.070591658353805542e-01;-1.187714785337448120e-01;-2.096838951110839844e-01;-1.679059416055679321e-01;-2.439450658857822418e-02;4.152505397796630859e-01;-1.957246065139770508e-01
1.584960669279098511e-01;2.080630660057067871e-01;6.183219328522682190e-02;-1.789506822824478149e-01;-8.589767664670944214e-02;2.230586260557174683e-01;2.096445411443710327e-01;-2.357591688632965088e-01;-5.047016143798828125e-01;6.924080662429332733e-03;2.235593944787979126e-01;-6.470676977187395096e-03;3.729271236807107925e-03;-3.100064992904663086e-01;6.932182610034942627e-02;3.938711434602737427e-02;1.079995557665824890e-01;3.379309922456741333e-02;-1.301991641521453857e-01;2.367395758628845215e-01;-4.930741190910339355e-01;5.421581119298934937e-02;3.265065550804138184e-01;-4.328221678733825684e-01;-1.020118966698646545e-01;3.304336965084075928e-01;5.106009170413017273e-02;-7.064136117696762085e-02;-8.198371529579162598e-02;-6.251513361930847168e-01;3.094698488712310791e-02;-4.713760316371917725e-01;-2.489599883556365967e-01;8.812238276004791260e-02;-6.310278177261352539e-02;-5.420015007257461548e-02;-1.551020890474319458e-02;-5.537927523255348206e-02;1.804944574832916260e-01;-3.694742023944854736e-01;6.752771884202957153e-02;1.978658586740493774e-01;1.175407469272613525e-01;-3.642445206642150879e-01;-2.800800800323486328e-01
-1.719370186328887939e-01;2.549350261688232422e-01;-7.819882780313491821e-02;4.286588132381439209e-01;6.496874690055847168e-01;2.148014605045318604e-01;-3.222264051437377930e-01;-3.639654815196990967e-01;3.966488242149353027e-01;-1.247110739350318909e-01;-7.018586248159408569e-02;-2.252608537673950195e-02;-1.991951614618301392e-01;-2.118692845106124878e-01;2.092238068580627441e-01;-2.673652172088623047e-01;2.264302372932434082e-01;3.879765570163726807e-01;1.587820053100585938e-01;-2.246542833745479584e-02;7.279347628355026245e-02;9.879746288061141968e-02;6.728200316429138184e-01;2.788333594799041748e-01;2.457207739353179932e-01;1.894062571227550507e-02;1.753733158111572266e-01;-2.601670473814010620e-02;1.190054714679718018e-01;2.535882778465747833e-02;-1.283996552228927612e-01;-1.050383783876895905e-02;-3.196524977684020996e-01;2.229966968297958374e-01;2.551466822624206543e-01;-1.903687119483947754e-01;6.508104503154754639e-02;6.963004916906356812e-02;2.540747225284576416e-01;-3.661281242966651917e-02;8.119058609008789062e-02;1.845440268516540527e-02;-6.544248759746551514e-02;4.614862799644470215e-01;-2.862392067909240723e-01
3.340762555599212646e-01;-3.775175511837005615e-01;-2.370026260614395142e-01;1.096476018428802490e-01;-1.141157671809196472e-01;-4.092972874641418457e-01;6.102519109845161438e-03;4.487235844135284424e-01;2.253151088953018188e-01;-9.237519502639770508e-01;2.784972786903381348e-01;-7.965532713569700718e-04;-2.866776883602142334e-01;2.619394958019256592e-01;2.951040267944335938e-01;5.037357807159423828e-01;-2.474936544895172119e-01;2.727642655372619629e-01;1.144893020391464233e-01;2.269546128809452057e-02;2.029994726181030273e-01;-1.167361959815025330e-01;-4.943738579750061035e-01;3.825919032096862793e-01;1.237641572952270508e-01;-4.358212053775787354e-01;-2.204729318618774414e-01;7.917746156454086304e-02;3.684729039669036865e-01;-2.451263070106506348e-01;-3.831672295928001404e-02;1.918034106492996216e-01;3.229348659515380859e-01;-2.525271773338317871e-01;-6.361986696720123291e-02;-4.848140478134155273e-02;-2.524115890264511108e-02;-1.582926362752914429e-01;-3.086732029914855957e-01;1.917198151350021362e-01;2.284069359302520752e-01;-8.453474044799804688e-01;-4.653388857841491699e-01;1.552819907665252686e-01;3.132678270339965820e-01
-2.717907726764678955e-01;-1.012199595570564270e-01;-2.398642003536224365e-01;4.626897349953651428e-02;1.041768416762351990e-01;-2.108913064002990723e-01;-4.067140519618988037e-01;1.776318103075027466e-01;-2.749531865119934082e-01;-8.188883960247039795e-02;-5.441166162490844727e-01;-8.204226940870285034e-02;2.315810024738311768e-01;3.576011359691619873e-01;-1.342891007661819458e-01;2.035962939262390137e-01;-1.199064776301383972e-01;-2.101048678159713745e-01;2.754511535167694092e-01;5.357730388641357422e-02;2.644615471363067627e-01;-4.425061866641044617e-02;-4.003147482872009277e-01;-8.088026195764541626e-02;6.355429440736770630e-02;-2.261007875204086304e-01;-3.911795318126678467e-01;1.130465790629386902e-01;-4.975812435150146484e-01;-1.739313602447509766e-01;-4.008122533559799194e-02;7.376392185688018799e-02;5.408020019531250000e-01;-3.691048622131347656e-01;9.539591148495674133e-03;8.359806612133979797e-03;1.785030514001846313e-01;-2.088596373796463013e-01;-3.909462988376617432e-01;8.896939456462860107e-03;2.257117778062820435e-01;-5.133680626749992371e-02;-1.549479067325592041e-01;-1.215109676122665405e-01;3.691394329071044922e-01
5.205521732568740845e-02;-1.381348073482513428e-01;-8.705518394708633423e-02;-2.328175604343414307e-01;-2.731052339076995850e-01;-1.708591133356094360e-01;-2.896601557731628418e-01;-5.265809223055839539e-02;3.466342687606811523e-01;-7.180706262588500977e-01;-2.867701649665832520e-01;2.511003240942955017e-02;1.719665527343750000e-01;7.503648847341537476e-02;-2.578848600387573242e-02;-9.011036157608032227e-02;-8.968097716569900513e-02;5.079674348235130310e-02;-3.070921301841735840e-01;1.146268681623041630e-03;1.089892014861106873e-01;-5.333699285984039307e-02;-1.925147473812103271e-01;3.560293316841125488e-01;-1.243283692747354507e-02;-5.683059617877006531e-02;-6.886531412601470947e-02;1.440575532615184784e-02;-1.543786078691482544e-01;3.133888170123100281e-02;-6.417015194892883301e-02;-7.716833055019378662e-02;8.200540393590927124e-02;8.028744906187057495e-02;-3.079999387264251709e-01;6.035515293478965759e-02;-1.344985216856002808e-01;1.460896879434585571e-01;-2.497113794088363647e-01;1.394393593072891235e-01;-2.920376658439636230e-01;-2.458245903253555298e-01;-3.629872202873229980e-01;1.932199597358703613e-01;1.479477882385253906e-01
1.150853410363197327e-01;-7.178698480129241943e-02;-3.531215786933898926e-01;-3.060700595378875732e-01;-8.386096358299255371e-02;-3.977966308593750000e-01;-5.084796622395515442e-02;1.522441357374191284e-01;-3.876208513975143433e-02;-5.039803981781005859e-01;-2.197170853614807129e-01;2.865582332015037537e-02;9.123425185680389404e-02;8.673958480358123779e-02;-4.724978283047676086e-02;3.418257534503936768e-01;-5.755956172943115234e-01;2.351389639079570770e-02;-2.538276091217994690e-02;-1.996669471263885498e-01;1.261021196842193604e-01;1.167149171233177185e-01;-2.310346066951751709e-01;-9.820605814456939697e-02;-6.399655342102050781e-02;-1.540658175945281982e-01;-2.229776531457901001e-01;-1.915724948048591614e-02;1.570406854152679443e-01;2.091024667024612427e-01;8.949828334152698517e-03;1.859725415706634521e-01;-1.173064634203910828e-01;-3.300415277481079102e-01;1.686079353094100952e-01;-2.076706886291503906e-01;-1.676985472440719604e-01;-3.092889189720153809e-01;7.025275379419326782e-02;-7.207471132278442383e-02;-5.058566108345985413e-02;1.902382522821426392e-01;1.323999185115098953e-02;-2.243677899241447449e-02;-5.182617157697677612e-02
5.503848195075988770e-02;-1.137273758649826050e-01;-1.933388859033584595e-01;-1.591171920299530029e-01;-6.680253148078918457e-02;-4.061095118522644043e-01;-1.457831114530563354e-01;-3.891314566135406494e-01;-7.601809501647949219e-01;5.283899139612913132e-03;4.850993752479553223e-01;1.072896197438240051e-01;1.584006845951080322e-01;-3.071498870849609375e-01;-3.140954077243804932e-01;-7.759623527526855469e-01;7.061265408992767334e-02;1.504749525338411331e-02;-4.389037191867828369e-01;-3.091300129890441895e-01;2.262172102928161621e-01;-2.752630785107612610e-02;3.786424398422241211e-01;-3.705609142780303955e-01;-2.196918576955795288e-01;-2.186686173081398010e-02;-1.712310314178466797e-01;-6.075625121593475342e-02;7.744699716567993164e-02;-2.827322483062744141e-01;-3.584132492542266846e-01;9.988150745630264282e-02;-5.855321288108825684e-01;2.711405754089355469e-01;3.535577952861785889e-01;-1.900743991136550903e-01;-1.316870450973510742e-01;1.514228433370590210e-01;1.154364794492721558e-01;1.906924098730087280e-01;-5.808280706405639648e-01;-3.028056025505065918e-01;-4.644508361816406250e-01;-7.025182247161865234e-02;-2.099416404962539673e-01
-1.256511658430099487e-01;1.384499669075012207e-01;-4.170464873313903809e-01;2.554641664028167725e-01;-1.923900656402111053e-02;-3.387421369552612305e-01;-2.541479766368865967e-01;6.852257847785949707e-01;2.992774248123168945e-01;-2.204873263835906982e-01;-5.539758801460266113e-01;-2.010006271302700043e-02;-2.534162998199462891e-02;-2.071583122014999390e-01;2.262442409992218018e-01;1.044600903987884521e-01;1.369421482086181641e-01;-2.892415821552276611e-01;1.957947611808776855e-01;9.305270016193389893e-02;2.819758951663970947e-01;1.675025559961795807e-03;-5.847033858299255371e-01;-1.609666272997856140e-02;3.880895674228668213e-01;-1.674160510301589966e-01;1.450183689594268799e-01;5.923831462860107422e-02;-2.149353623390197754e-01;-8.425187319517135620e-02;-2.913931906223297119e-01;-2.775731086730957031e-01;5.777395367622375488e-01;-4.793334007263183594e-01;3.275014460086822510e-01;-6.934621185064315796e-02;-1.480884104967117310e-01;8.236658573150634766e-02;1.836609989404678345e-01;-4.253848493099212646e-01;-2.424424439668655396e-01;-3.050231933593750000e-02;1.970932781696319580e-01;3.068803548812866211e-01;6.815659813582897186e-03
-7.805433869361877441e-02;8.670918643474578857e-02;-2.882729470729827881e-01;-8.010581731796264648e-01;-4.379521608352661133e-01;-1.200031265616416931e-01;-6.187385916709899902e-01;-8.218564391136169434e-01;-6.562925577163696289e-01;-1.162041306495666504e+00;-2.375954240560531616e-01;2.164550311863422394e-02;3.710294663906097412e-01;-2.547852396965026855e-01;-1.103725954890251160e-01;-8.314540982246398926e-01;-4.574864804744720459e-01;-1.374902427196502686e-01;-1.616238504648208618e-01;-5.598993971943855286e-02;-5.063845892436802387e-04;1.823965646326541901e-02;-4.555152952671051025e-01;-8.543952703475952148e-01;-5.084215998649597168e-01;9.262164123356342316e-03;-2.269943505525588989e-01;-5.299044400453567505e-02;-4.509508013725280762e-01;2.628623880445957184e-02;1.116065308451652527e-02;4.365155473351478577e-02;1.097400858998298645e-02;8.324897289276123047e-02;-4.048747718334197998e-01;-2.459974884986877441e-01;-2.000762075185775757e-01;-5.916950702667236328e-01;-1.077203631401062012e+00;-3.779174983501434326e-01;-3.276713192462921143e-01;7.877073287963867188e-01;-8.196429014205932617e-01;2.196473255753517151e-02;-2.889183461666107178e-01
1.804318577051162720e-01;-2.006185054779052734e-02;1.109926179051399231e-01;-2.923876047134399414e-01;-2.603792548179626465e-01;-2.989841997623443604e-01;3.332499563694000244e-01;-1.515697836875915527e-01;3.049510717391967773e-01;-1.704438328742980957e-01;-3.257872164249420166e-01;-1.336511690169572830e-02;-9.197538346052169800e-02;3.172161802649497986e-02;-2.896946370601654053e-01;-2.440294921398162842e-01;-1.056266278028488159e-01;6.433752924203872681e-02;-1.075612679123878479e-01;-2.863234654068946838e-02;3.351493924856185913e-02;1.279963403940200806e-01;-3.443766236305236816e-01;3.847156167030334473e-01;-3.211531043052673340e-02;8.050111681222915649e-02;1.181401684880256653e-01;-4.465312138199806213e-02;1.518208719789981842e-02;-2.725239843130111694e-02;-1.665753126144409180e-01;-8.583007752895355225e-02;-1.647968292236328125e-01;1.062730178236961365e-01;-5.276870727539062500e-01;3.822923451662063599e-02;-2.318122237920761108e-01;-2.962368130683898926e-01;-2.876276373863220215e-01;-5.081297084689140320e-02;3.119745552539825439e-01;4.142017364501953125e-01;8.004385232925415039e-02;1.632014960050582886e-01;-1.702997386455535889e-01
1.036849152296781540e-02;1.117387041449546814e-01;-2.879996597766876221e-01;7.815075665712356567e-02;2.899031341075897217e-01;7.868709415197372437e-02;-1.134545579552650452e-01;-9.334102272987365723e-02;-9.477114304900169373e-03;-1.141135618090629578e-01;-3.348467946052551270e-01;3.621396794915199280e-02;-7.057031616568565369e-03;-2.066121809184551239e-02;1.249349936842918396e-01;-2.568660974502563477e-01;8.209971338510513306e-02;7.213646918535232544e-02;-1.378235965967178345e-01;3.652779385447502136e-02;1.314012110233306885e-01;2.152489498257637024e-02;8.769332431256771088e-03;-8.079715073108673096e-02;2.189451456069946289e-01;-8.847001194953918457e-02;1.943534463644027710e-01;-4.058254510164260864e-02;-1.642343997955322266e-01;-4.693519473075866699e-01;-3.616016209125518799e-01;1.067113950848579407e-01;-2.872216105461120605e-01;1.653791069984436035e-01;2.000979334115982056e-01;1.166529729962348938e-01;-8.726184070110321045e-02;-2.655687332153320312e-01;-4.473724067211151123e-01;-3.727242946624755859e-01;2.464295774698257446e-01;-4.006140828132629395e-01;4.177040979266166687e-02;1.682588607072830200e-01;-7.385161519050598145e-02
3.948898240923881531e-02;-1.849397420883178711e-01;-2.174373418092727661e-01;3.796705305576324463e-01;1.214536949992179871e-01;-6.472592353820800781e-01;-8.182569406926631927e-03;-2.291367202997207642e-01;2.460626214742660522e-01;3.758647143840789795e-01;-3.506809771060943604e-01;5.409229919314384460e-02;6.443534791469573975e-02;-3.787764115259051323e-03;2.577215433120727539e-01;6.988334655761718750e-02;-3.706447184085845947e-01;2.286835312843322754e-01;-4.687804877758026123e-01;-5.729128047823905945e-02;2.297047972679138184e-01;-1.462567299604415894e-01;-2.354149520397186279e-01;-3.834266960620880127e-01;2.623942196369171143e-01;-5.056721717119216919e-02;-4.126555323600769043e-01;3.826273232698440552e-02;-1.018566563725471497e-01;6.126335635781288147e-02;1.922200918197631836e-01;-1.698221415281295776e-01;3.859407007694244385e-01;-2.414233982563018799e-01;-2.600037753582000732e-01;-5.123332142829895020e-01;1.456815898418426514e-01;-3.078451156616210938e-01;2.846022136509418488e-02;1.582071781158447266e-01;1.865497082471847534e-01;-6.286604404449462891e-01;3.888768553733825684e-01;2.087315618991851807e-01;1.712531447410583496e-01
-5.780815612524747849e-03;1.837309300899505615e-01;-1.481536924839019775e-01;-3.637655377388000488e-01;1.462801098823547363e-01;-4.136702418327331543e-01;-2.790413200855255127e-01;2.138121239840984344e-02;-3.642704784870147705e-01;-6.655805706977844238e-01;4.624361693859100342e-01;3.394565731287002563e-02;-2.992330789566040039e-01;2.658380754292011261e-02;-6.715551018714904785e-01;-6.051810830831527710e-02;-2.439716607332229614e-01;1.553448140621185303e-01;-4.375508427619934082e-01;-1.738947778940200806e-01;3.432914316654205322e-01;-6.660227477550506592e-02;4.216560721397399902e-01;-4.269460439682006836e-01;-1.037941053509712219e-01;-1.316902339458465576e-01;-1.164036691188812256e-01;4.526144638657569885e-02;2.715349011123180389e-02;-1.170025467872619629e-01;-1.918718963861465454e-01;2.736572921276092529e-01;3.200058592483401299e-03;2.663855552673339844e-01;1.168553084135055542e-01;-3.317680656909942627e-01;2.006077393889427185e-02;-5.809656530618667603e-02;-1.186765909194946289e+00;1.739368191920220852e-03;9.368690103292465210e-02;-2.819680571556091309e-01;-7.167766243219375610e-02;-1.902944594621658325e-01;-5.595876649022102356e-02
1.028960868716239929e-01;3.232315927743911743e-02;-6.936654914170503616e-03;-4.141176640987396240e-01;-1.260160803794860840e-01;-1.259864866733551025e-01;2.967025041580200195e-01;6.904166191816329956e-02;4.009384289383888245e-02;-1.257539540529251099e-01;4.028158262372016907e-03;8.871983736753463745e-02;-2.760483324527740479e-01;-8.848073333501815796e-02;8.605639636516571045e-02;-1.908841580152511597e-01;-2.172874957323074341e-01;-1.354473084211349487e-01;-5.768070816993713379e-01;-1.704639643430709839e-01;1.678387522697448730e-01;3.865104541182518005e-02;-7.075785100460052490e-02;8.137773722410202026e-02;-8.622842282056808472e-02;1.057851463556289673e-01;-7.513628154993057251e-02;-7.262391597032546997e-02;7.308623939752578735e-02;1.689105778932571411e-01;-5.371406674385070801e-03;2.600468993186950684e-01;1.494825482368469238e-01;6.530951708555221558e-02;2.239143997430801392e-01;-3.809735178947448730e-01;3.855154151096940041e-03;-3.223109841346740723e-01;3.214962407946586609e-02;1.694682389497756958e-01;-3.626971840858459473e-01;1.018545310944318771e-02;9.290916472673416138e-02;1.443926990032196045e-01;-1.205052137374877930e-01
5.709236487746238708e-03;4.985504969954490662e-02;-3.173586726188659668e-01;1.872129589319229126e-01;-7.961925864219665527e-02;-1.983317732810974121e-02;-2.716102898120880127e-01;-5.249778628349304199e-01;-6.317726522684097290e-02;-1.341892480850219727e-01;3.123525083065032959e-01;-1.309369318187236786e-02;-4.287549294531345367e-03;-6.644665598869323730e-01;8.785022050142288208e-02;-3.482551872730255127e-01;2.307164669036865234e-01;-4.793616384267807007e-02;-2.017735540866851807e-01;-1.046112626791000366e-01;1.886189430952072144e-01;2.291555702686309814e-02;1.699751913547515869e-01;6.004428863525390625e-02;-9.063815325498580933e-02;-1.025785803794860840e-01;-8.869553357362747192e-02;4.078329354524612427e-02;-2.282043732702732086e-02;1.554768085479736328e-01;-2.543151974678039551e-01;7.608933746814727783e-02;-7.500498294830322266e-01;-3.000186085700988770e-01;1.502882242202758789e-01;-1.593776941299438477e-01;-2.514574527740478516e-01;1.081243995577096939e-02;-8.333021402359008789e-02;-1.888120770454406738e-01;-2.054403424263000488e-01;-2.370693385601043701e-01;-1.504293922334909439e-02;2.400695085525512695e-01;-5.237465500831604004e-01
-2.966497279703617096e-02;3.228453397750854492e-01;1.033271402120590210e-01;1.075275540351867676e-01;9.878091514110565186e-02;6.505728513002395630e-02;-1.908677816390991211e-01;-1.217115786857903004e-03;-1.273010205477476120e-02;-1.028174310922622681e-01;2.318594455718994141e-01;-1.184513643383979797e-01;1.025356203317642212e-01;-3.623716160655021667e-02;-2.812868952751159668e-01;-6.220180541276931763e-02;-1.934895105659961700e-02;-8.012467622756958008e-02;3.623490408062934875e-02;2.087063491344451904e-01;-3.780611753463745117e-01;1.973621249198913574e-01;1.515124738216400146e-01;-5.997278913855552673e-02;-1.526113450527191162e-01;1.800851076841354370e-01;2.192855179309844971e-01;1.033328473567962646e-02;-1.051537990570068359e-01;-4.526464939117431641e-01;1.212170273065567017e-01;1.860647089779376984e-02;1.092928498983383179e-01;1.009437069296836853e-01;-4.024010002613067627e-01;3.098964691162109375e-01;-2.216996401548385620e-01;4.184399545192718506e-02;-9.873382449150085449e-01;-2.197559773921966553e-01;-1.075552403926849365e-02;1.602326184511184692e-01;1.034520845860242844e-02;2.238447964191436768e-01;1.070790737867355347e-02
1.778775751590728760e-01;-1.522405296564102173e-01;-1.874434500932693481e-01;-7.255935668945312500e-02;-1.147927064448595047e-02;1.963159441947937012e-02;2.943644225597381592e-01;-5.096340775489807129e-01;3.223598301410675049e-01;-2.456703484058380127e-01;-1.903943866491317749e-01;-1.498306822031736374e-02;8.286123722791671753e-02;-5.757588744163513184e-01;-2.900131642818450928e-01;-3.435786366462707520e-01;-2.054283618927001953e-01;1.205729171633720398e-01;-3.540700674057006836e-02;-6.664050742983818054e-04;1.076035350561141968e-01;-2.516927383840084076e-02;2.422998696565628052e-01;-4.149702563881874084e-02;-1.000991836190223694e-01;1.036629602313041687e-01;1.398653835058212280e-01;1.405632495880126953e-02;2.495741546154022217e-01;-3.460777699947357178e-01;-7.396361827850341797e-01;-2.790971398353576660e-01;-5.514906644821166992e-01;1.352514922618865967e-01;6.756141036748886108e-02;-2.724823951721191406e-01;-1.217188611626625061e-01;3.795358911156654358e-02;-1.976190060377120972e-01;1.915996223688125610e-01;-3.895970433950424194e-02;2.848971262574195862e-02;-3.269425928592681885e-01;-7.244873046875000000e-02;-5.665094852447509766e-01
-3.241266012191772461e-01;1.435545086860656738e-01;5.174199491739273071e-02;-2.173167616128921509e-01;1.111545041203498840e-02;4.098918288946151733e-02;6.258987635374069214e-02;1.481344699859619141e-01;1.934921890497207642e-01;-3.681703284382820129e-02;2.386031001806259155e-01;1.093245968222618103e-01;-4.142920076847076416e-01;-5.940123274922370911e-02;-2.741218507289886475e-01;-2.738280892372131348e-01;3.589938953518867493e-02;4.318737387657165527e-01;-3.226208388805389404e-01;-1.540728658437728882e-01;1.128715351223945618e-01;-6.350772082805633545e-02;2.426293492317199707e-01;-1.699040532112121582e-01;-3.147834166884422302e-02;3.802285296842455864e-03;3.408046960830688477e-01;-7.677886635065078735e-02;-5.029078200459480286e-02;1.110957413911819458e-01;4.049711823463439941e-01;1.972564682364463806e-02;2.880574166774749756e-01;5.145011842250823975e-02;1.065083667635917664e-01;2.790036424994468689e-02;-2.158357053995132446e-01;-3.213960826396942139e-01;2.568947076797485352e-01;1.617685705423355103e-01;-1.733839511871337891e-02;-3.996640443801879883e-01;1.253892481327056885e-01;-9.201037138700485229e-02;6.667132675647735596e-02
1.456578224897384644e-01;-3.087438941001892090e-01;2.784292399883270264e-01;-6.292502284049987793e-01;-4.718965291976928711e-01;-5.476079881191253662e-02;-3.263589739799499512e-01;-2.391494661569595337e-01;-5.042929053306579590e-01;-1.400802880525588989e-01;-4.543605148792266846e-01;-7.843607664108276367e-02;1.692277938127517700e-01;-2.625626325607299805e-01;-3.080359995365142822e-01;-2.434668391942977905e-01;-1.370759010314941406e-01;6.085368618369102478e-02;-2.685182169079780579e-02;1.569829285144805908e-01;6.816580891609191895e-03;5.731473676860332489e-03;-3.292163368314504623e-03;-2.335602231323719025e-02;-9.411989897489547729e-02;2.947991527616977692e-02;1.855518817901611328e-01;5.987115204334259033e-02;1.419510990381240845e-01;4.781426489353179932e-02;1.309321969747543335e-01;-2.042316943407058716e-01;1.485960185527801514e-01;-3.672500252723693848e-01;9.778229147195816040e-02;-4.166495501995086670e-01;1.327248662710189819e-01;1.271372586488723755e-01;-2.347048968076705933e-01;2.786490321159362793e-01;-1.175755783915519714e-01;-3.847064375877380371e-01;-3.671967685222625732e-01;-2.894492447376251221e-01;-1.063842624425888062e-01
-2.846825420856475830e-01;1.734569072723388672e-01;-4.964981079101562500e-01;-3.767807483673095703e-01;1.769555360078811646e-01;3.128213584423065186e-01;-3.987457752227783203e-01;-5.487261414527893066e-01;-1.885898262262344360e-01;1.597082614898681641e-01;5.707705020904541016e-01;-1.366335153579711914e-01;-2.413881719112396240e-01;-3.973641395568847656e-01;-3.750759661197662354e-01;3.065203726291656494e-01;-3.202587962150573730e-01;5.550080910325050354e-02;3.453307449817657471e-01;4.305592477321624756e-01;-5.062516927719116211e-01;9.297158569097518921e-03;2.363861352205276489e-01;-1.236076578497886658e-01;1.712377071380615234e-01;9.603116661310195923e-02;1.728310436010360718e-01;6.037827581167221069e-02;-1.221548691391944885e-01;-3.705381751060485840e-01;-8.721473813056945801e-02;-3.381493091583251953e-01;-5.689512491226196289e-01;2.659989297389984131e-01;-3.809381127357482910e-01;3.992319107055664062e-01;-1.569979451596736908e-02;1.512471735477447510e-01;2.543572187423706055e-01;-6.838121265172958374e-02;-7.458404451608657837e-02;-2.212280631065368652e-01;1.083169952034950256e-01;-3.328777849674224854e-01;-1.299291700124740601e-01
-1.544375866651535034e-01;1.517834886908531189e-02;-8.271780610084533691e-02;4.453403651714324951e-01;1.398737579584121704e-01;-2.945632636547088623e-01;3.184012770652770996e-01;-6.044939756393432617e-01;-6.482080817222595215e-01;-4.605152904987335205e-01;-2.722149491310119629e-01;-2.016785889863967896e-01;2.811680734157562256e-02;-2.148466855287551880e-01;5.253719538450241089e-02;1.984455287456512451e-01;2.226117700338363647e-01;-3.334860205650329590e-01;-2.803782820701599121e-01;3.278057277202606201e-01;-2.761441171169281006e-01;2.870929837226867676e-01;-3.183497786521911621e-01;-3.698740303516387939e-01;2.387080788612365723e-01;2.434934377670288086e-01;-1.254589438438415527e+00;3.667093068361282349e-02;-2.190074622631072998e-01;2.443355023860931396e-01;-7.327388226985931396e-02;-1.000554040074348450e-01;-3.811122775077819824e-01;-3.652181625366210938e-01;-4.506595432758331299e-01;-5.634181499481201172e-01;-1.718894392251968384e-01;-4.194884300231933594e-01;-5.252488851547241211e-01;6.711385212838649750e-03;-1.649805810302495956e-03;-4.500743374228477478e-02;3.323651850223541260e-01;6.866813451051712036e-02;-1.610820144414901733e-01
9.955272823572158813e-02;9.272018074989318848e-02;-2.165700197219848633e-01;7.196424901485443115e-02;4.288807883858680725e-02;-3.913555741310119629e-01;-8.163938671350479126e-02;4.373283684253692627e-01;-1.518510431051254272e-01;1.501727104187011719e-01;-4.724366068840026855e-01;1.962521225214004517e-01;-1.537438184022903442e-01;1.727753728628158569e-01;4.257617592811584473e-01;5.087903887033462524e-02;6.886611878871917725e-02;9.881462156772613525e-02;-1.529021710157394409e-01;-2.776374816894531250e-01;1.855926662683486938e-01;7.725148927420377731e-03;2.253097854554653168e-02;-3.645671010017395020e-01;1.693772822618484497e-01;-1.320825517177581787e-01;-5.030115842819213867e-01;-1.941718608140945435e-01;3.110285382717847824e-03;-2.644786238670349121e-01;-6.466101855039596558e-02;1.319741755723953247e-01;2.656384706497192383e-01;-9.823588281869888306e-02;-1.406289488077163696e-01;-4.580675661563873291e-01;1.645690500736236572e-01;-2.446654438972473145e-01;2.199657857418060303e-01;-7.046442031860351562e-01;1.113363504409790039e-01;-3.310302644968032837e-02;-2.609705924987792969e-01;-1.768947765231132507e-02;2.799429595470428467e-01
3.842334747314453125e-01;-1.461832672357559204e-01;-4.606511294841766357e-01;1.197140663862228394e-01;6.758770346641540527e-01;1.274717599153518677e-01;-5.323518514633178711e-01;-2.164190560579299927e-01;-1.475989818572998047e-01;-2.801534235477447510e-01;5.650831460952758789e-01;-1.972843706607818604e-01;-1.838545799255371094e-01;7.700168341398239136e-02;8.326657116413116455e-02;2.930824458599090576e-01;-7.782819271087646484e-01;-1.856870353221893311e-01;4.628657400608062744e-01;2.746504247188568115e-01;1.412072684615850449e-03;-1.339777112007141113e-01;7.615536451339721680e-01;-7.039306163787841797e-01;-3.852938711643218994e-01;-1.897403299808502197e-01;-6.572197675704956055e-01;1.900860369205474854e-01;2.696424126625061035e-01;1.997949182987213135e-02;3.634290769696235657e-02;3.163166642189025879e-01;1.710538119077682495e-01;5.959294438362121582e-01;7.286353409290313721e-02;-2.936235964298248291e-01;-1.594091653823852539e-01;-1.324287950992584229e-01;-6.732989102602005005e-02;8.294620513916015625e-01;-6.511036753654479980e-01;-7.560626864433288574e-01;1.082077249884605408e-01;-4.690361022949218750e-01;-9.056372568011283875e-03
1.454369872808456421e-01;-2.172086201608181000e-02;2.851437963545322418e-02;-1.297006458044052124e-01;7.839133590459823608e-02;1.060470119118690491e-01;-5.631161332130432129e-01;-1.248563155531883240e-01;2.733592092990875244e-01;-4.708741977810859680e-02;1.092891395092010498e-01;-1.307213157415390015e-01;1.356107443571090698e-01;-1.946085393428802490e-01;-6.441567540168762207e-01;-1.573033332824707031e-01;-3.850708901882171631e-01;2.233539968729019165e-01;2.424181848764419556e-01;2.192779183387756348e-01;-3.173364996910095215e-01;2.167801856994628906e-01;1.780679076910018921e-01;2.548505961894989014e-01;-8.376820944249629974e-03;-4.433970898389816284e-02;2.068240195512771606e-01;1.117324270308017731e-02;2.549775838851928711e-01;2.930402159690856934e-01;-7.050717715173959732e-03;-6.697147339582443237e-02;2.479475550353527069e-02;1.546161621809005737e-01;-6.079254746437072754e-01;2.517184913158416748e-01;-1.245794594287872314e-01;-4.433522373437881470e-02;2.364957183599472046e-01;4.934690147638320923e-02;2.141916751861572266e-01;1.222630366683006287e-01;-1.734670400619506836e-01;1.799479573965072632e-01;-1.917985081672668457e-01
-3.911936581134796143e-01;1.949377916753292084e-02;-2.406273633241653442e-01;-1.481559425592422485e-01;-1.390521526336669922e-01;-2.537213265895843506e-01;1.573903262615203857e-01;2.279155254364013672e-01;-4.705443084239959717e-01;2.557975947856903076e-01;1.730140596628189087e-01;2.573931403458118439e-02;-3.871840834617614746e-01;4.081460237503051758e-01;-2.011785097420215607e-02;2.613919973373413086e-02;-5.262938737869262695e-01;-1.490983814001083374e-01;-2.629382610321044922e-01;-1.132175847887992859e-01;1.276297718286514282e-01;-1.208786517381668091e-01;5.770612880587577820e-02;9.260200709104537964e-02;-2.969732582569122314e-01;-3.245424330234527588e-01;-3.732785210013389587e-02;7.249068468809127808e-02;-3.529638051986694336e-01;-1.740696728229522705e-01;6.206498295068740845e-02;-1.757627725601196289e-01;3.794473037123680115e-02;-2.946646213531494141e-01;1.319644004106521606e-01;-3.242760598659515381e-01;-3.816037997603416443e-02;-1.519648730754852295e-01;2.413783520460128784e-01;-2.354422807693481445e-01;5.287165939807891846e-02;-6.220821142196655273e-01;8.122713118791580200e-02;-1.171928644180297852e-01;3.627510964870452881e-01
-5.284438282251358032e-02;-3.458379805088043213e-01;-1.506617218255996704e-01;-2.923033237457275391e-01;-1.267197430133819580e-01;-3.381947427988052368e-02;-2.535091340541839600e-01;-1.479818969964981079e-01;-7.594941556453704834e-02;1.713517755270004272e-01;2.558719813823699951e-01;2.781318686902523041e-02;-5.824395641684532166e-02;-9.744326770305633545e-02;6.700144708156585693e-02;-2.852019071578979492e-01;-3.252182602882385254e-01;-3.784853219985961914e-01;-6.877499073743820190e-02;5.587381497025489807e-02;-1.272801756858825684e-01;-1.030253320932388306e-01;2.750677466392517090e-01;2.323363423347473145e-01;-1.524620801210403442e-01;-7.535357773303985596e-02;-2.019740939140319824e-01;9.557705488987267017e-04;2.344828993082046509e-01;-5.937000364065170288e-02;-1.630623936653137207e-01;-6.516040861606597900e-02;-8.255509287118911743e-02;2.680189907550811768e-01;2.394543737173080444e-01;5.575890094041824341e-02;5.036644265055656433e-02;1.246734857559204102e-01;-9.636283665895462036e-02;-1.475309729576110840e-01;-1.459804177284240723e-01;-3.916109502315521240e-01;-9.149836003780364990e-02;-2.183895371854305267e-02;-1.277443170547485352e-01
-1.446866542100906372e-01;4.643169790506362915e-02;9.037277847528457642e-02;-5.836632568389177322e-03;-6.674475967884063721e-02;-1.899733394384384155e-01;1.740130782127380371e-01;9.548437595367431641e-02;7.360374927520751953e-02;-4.507351550273597240e-04;-1.794665008783340454e-01;-1.201334893703460693e-01;5.258899554610252380e-02;-1.147560924291610718e-01;-1.555040944367647171e-02;-5.152669269591569901e-03;-1.334066241979598999e-01;-7.801074534654617310e-02;-2.261209338903427124e-01;-2.277536876499652863e-02;5.041067674756050110e-02;9.628695994615554810e-02;-1.729385256767272949e-01;9.145976603031158447e-02;-2.834472060203552246e-01;3.624713048338890076e-02;1.187359541654586792e-01;-5.163288116455078125e-02;-1.300580203533172607e-01;8.958631008863449097e-02;-1.277982741594314575e-01;-5.794307217001914978e-02;2.286108881235122681e-01;1.230338811874389648e-01;-2.045272737741470337e-01;-9.953805804252624512e-02;-1.980167329311370850e-01;-1.222290471196174622e-02;-1.748171597719192505e-01;1.676471233367919922e-01;-2.156254351139068604e-01;9.683096408843994141e-02;6.870360672473907471e-02;-1.281269341707229614e-01;9.356834739446640015e-02
-3.282358348369598389e-01;3.274904191493988037e-02;1.585381776094436646e-01;-7.295226454734802246e-01;-1.974371522665023804e-01;2.668779492378234863e-01;-2.495775520801544189e-01;5.403018742799758911e-02;-8.054084330797195435e-02;-3.125598654150962830e-02;-2.630809843540191650e-01;1.074808910489082336e-01;-3.053981363773345947e-01;6.232398748397827148e-02;-3.296484351158142090e-01;9.578780154697597027e-04;1.281083077192306519e-01;-3.911755681037902832e-01;1.515544950962066650e-01;1.661301031708717346e-02;3.020674586296081543e-01;-2.347297817468643188e-01;-6.272107362747192383e-01;-5.410584807395935059e-01;1.898208856582641602e-01;-1.813904494047164917e-01;5.075653195381164551e-01;-1.360027119517326355e-03;5.980082973837852478e-02;-3.047078847885131836e-01;3.665760159492492676e-01;-3.187966942787170410e-01;-3.493730723857879639e-01;-3.613676875829696655e-03;3.489043414592742920e-01;5.900533795356750488e-01;5.371032748371362686e-03;1.506286412477493286e-01;4.996510148048400879e-01;7.293593604117631912e-03;7.637448608875274658e-02;-5.715006589889526367e-01;-1.361702382564544678e-01;-5.789947509765625000e-01;3.478540107607841492e-02
-7.573530077934265137e-02;4.142435640096664429e-02;6.529671698808670044e-02;1.546089351177215576e-01;-8.797966688871383667e-02;-5.599144846200942993e-02;-9.023636579513549805e-02;-5.821218490600585938e-01;-1.620547622442245483e-01;-7.944003939628601074e-01;1.525368392467498779e-01;-2.682713046669960022e-02;-4.686641693115234375e-02;-2.312314808368682861e-01;-6.006662175059318542e-02;-1.528224050998687744e-01;1.635736376047134399e-01;-1.383061707019805908e-01;2.337986826896667480e-01;1.446146816015243530e-01;-2.689320147037506104e-01;-1.434132270514965057e-02;-1.230729073286056519e-01;9.956477582454681396e-02;2.306866496801376343e-01;1.357318758964538574e-01;-7.693343609571456909e-02;1.456372439861297607e-02;8.892893791198730469e-02;-7.647731900215148926e-02;-9.847992658615112305e-02;1.753462105989456177e-01;-3.941999673843383789e-01;-2.313632369041442871e-01;5.267731845378875732e-03;5.304910242557525635e-02;-8.845847845077514648e-02;5.088163167238235474e-02;-2.549781799316406250e-01;9.649457782506942749e-02;-3.878518640995025635e-01;1.289880126714706421e-01;-2.201818674802780151e-01;-2.492738813161849976e-01;-2.098601162433624268e-01
