3.214288353919982910e-01;1.680017113685607910e-01;-4.444611072540283203e-02;-3.724819421768188477e-01;-7.765900492668151855e-01;4.229677915573120117e-01;4.704878851771354675e-02;-3.607780933380126953e-01;-1.002080366015434265e-01;7.204909622669219971e-02;2.951448559761047363e-01;-4.677155315876007080e-01;-2.037180215120315552e-01;-3.636077791452407837e-02;-1.603281199932098389e-01;-7.165865898132324219e-01;-2.840673327445983887e-01;8.085703849792480469e-01;-7.958320528268814087e-02;-1.115122660994529724e-01;4.055151045322418213e-01;-2.196737527847290039e-01;1.544754654169082642e-01;-1.955257952213287354e-01;-1.104846954345703125e+00;7.889319658279418945e-01;-4.948912933468818665e-02;-2.626786828041076660e-01;-4.783570170402526855e-01;-2.569195628166198730e-01;7.113078832626342773e-01;-2.574795186519622803e-01;-1.348788738250732422e-01;-3.587139397859573364e-02;-5.657530575990676880e-02;-2.020216286182403564e-01;1.394344419240951538e-01;2.245294749736785889e-01;-1.469198316335678101e-01;2.394388318061828613e-01;1.987116783857345581e-01;3.298020362854003906e-01;7.339171171188354492e-01;1.914456784725189209e-01;-8.014099672436714172e-03;7.156445086002349854e-02;1.785459965467453003e-01;3.281264379620552063e-02;-3.828171268105506897e-02;3.970847427845001221e-01;-1.619456708431243896e-01;2.550663426518440247e-02;2.010667324066162109e-01;-1.361437793821096420e-02;-1.562163680791854858e-01;-1.581265926361083984e-01;7.541648745536804199e-01;4.122274219989776611e-01;-9.689395129680633545e-02;-9.104965627193450928e-02;2.388387024402618408e-01;-1.447948068380355835e-01;-2.314845770597457886e-01;4.838567078113555908e-01;1.364984363317489624e-01
3.026970326900482178e-01;-3.572300970554351807e-01;1.328486949205398560e-01;-2.736694216728210449e-01;1.147298794239759445e-02;3.736383840441703796e-02;2.342120707035064697e-01;-4.230310395359992981e-02;7.697284221649169922e-03;1.561322808265686035e-01;1.183066070079803467e-01;-2.084091901779174805e-01;3.999474048614501953e-01;5.739653110504150391e-02;-1.000036299228668213e-01;-1.712923347949981689e-01;7.020494341850280762e-02;1.296900957822799683e-01;2.271096408367156982e-01;4.440073072910308838e-01;-1.285396814346313477e-01;7.528725266456604004e-02;3.022738397121429443e-01;3.386048674583435059e-01;-2.165643423795700073e-01;6.788165122270584106e-02;2.089012265205383301e-01;6.760483235120773315e-02;4.934620857238769531e-02;5.255871266126632690e-02;-2.197597324848175049e-01;1.074709817767143250e-01;1.643499545753002167e-02;2.249515205621719360e-01;-4.818591848015785217e-02;-2.174004316329956055e-01;-2.854794561862945557e-01;5.967207998037338257e-02;-1.681316941976547241e-01;5.265241116285324097e-02;1.653559207916259766e-01;-1.097323894500732422e-01;2.960202395915985107e-01;-2.018371373414993286e-01;-3.075473904609680176e-01;1.691617369651794434e-01;-2.076846957206726074e-01;3.197740018367767334e-02;-2.431374639272689819e-01;-1.978333294391632080e-01;-2.519406974315643311e-01;1.603118926286697388e-01;5.146633833646774292e-03;-1.461247503757476807e-01;9.957888722419738770e-02;-9.117782115936279297e-02;2.721990346908569336e-01;9.569509327411651611e-02;8.682668209075927734e-02;1.566154658794403076e-01;3.673672676086425781e-01;1.439992785453796387e-01;-2.194233834743499756e-01;-2.589421272277832031e-01;-4.249032586812973022e-02
1.869636625051498413e-01;-1.498790681362152100e-01;1.528814882040023804e-01;-4.746490344405174255e-02;-3.590042293071746826e-01;-4.381706565618515015e-02;-9.382193535566329956e-02;-8.878753520548343658e-03;1.969284862279891968e-01;-6.171370297670364380e-02;-4.604008495807647705e-01;-3.193750977516174316e-02;2.345734089612960815e-01;-3.911220729351043701e-01;-1.616649329662322998e-01;-1.740567535161972046e-01;-7.526201009750366211e-02;8.904609829187393188e-02;1.752789914608001709e-01;-3.146562874317169189e-01;1.688734441995620728e-01;-1.041444540023803711e-01;1.000303551554679871e-01;5.400640890002250671e-02;-6.804545409977436066e-03;2.191741764545440674e-02;-1.181774660944938660e-01;-2.320722490549087524e-01;-1.908122450113296509e-01;-3.114047944545745850e-01;1.227661669254302979e-01;-1.893410831689834595e-01;1.215975135564804077e-01;1.115271123126149178e-03;-2.903214991092681885e-01;-2.227586209774017334e-01;5.338566750288009644e-02;1.676528155803680420e-01;-2.505224943161010742e-01;2.690873853862285614e-02;1.351642757654190063e-01;-1.956518888473510742e-01;3.287568315863609314e-02;2.048632502555847168e-01;-7.744286656379699707e-01;3.595320582389831543e-01;-1.175709217786788940e-01;-1.613962799310684204e-01;3.149499893188476562e-01;-1.407620590180158615e-02;3.230371773242950439e-01;7.576487958431243896e-02;2.991932332515716553e-01;-3.285392820835113525e-01;-4.069452360272407532e-02;-1.127373147755861282e-02;1.232957988977432251e-01;-3.017719388008117676e-01;1.748506426811218262e-01;-6.343237310647964478e-02;1.801524311304092407e-01;2.335672527551651001e-01;5.461685359477996826e-02;3.368169665336608887e-01;2.584230005741119385e-01
6.382650882005691528e-02;-1.010376453399658203e+00;1.372023820877075195e-01;3.055611550807952881e-01;2.029778622090816498e-02;3.110298514366149902e-01;-7.185804098844528198e-02;1.581586897373199463e-01;7.307568099349737167e-03;-3.327644467353820801e-01;1.254425197839736938e-01;1.359884589910507202e-01;1.454049944877624512e-01;7.023132592439651489e-02;-1.141581460833549500e-01;-1.090600639581680298e-01;-6.523070484399795532e-02;2.429702281951904297e-01;2.385600507259368896e-01;1.438590735197067261e-01;-7.177289575338363647e-02;-1.817206293344497681e-02;6.003589555621147156e-02;7.745281606912612915e-02;6.911693513393402100e-02;1.772083938121795654e-01;1.508105248212814331e-01;2.048805728554725647e-02;-2.310532182455062866e-01;-2.050101943314075470e-02;-1.714644730091094971e-01;1.287113428115844727e-01;2.806681990623474121e-01;8.682569116353988647e-02;-6.441811323165893555e-01;-2.881381213665008545e-01;2.500849664211273193e-01;5.126670598983764648e-01;3.759567439556121826e-01;4.357295110821723938e-02;8.826178312301635742e-02;-2.780777215957641602e-01;3.800108730792999268e-01;8.630447089672088623e-02;2.778634727001190186e-01;1.772761791944503784e-01;2.073249220848083496e-02;1.901009827852249146e-01;2.977262437343597412e-01;4.186684638261795044e-02;-5.360102653503417969e-01;-1.915779523551464081e-02;-1.556562632322311401e-01;-6.841067224740982056e-02;3.048106282949447632e-02;1.892829537391662598e-01;-1.683455407619476318e-01;2.173371315002441406e-01;9.956700354814529419e-02;1.315639261156320572e-02;-2.006983757019042969e-01;5.615678150206804276e-03;-1.993817538022994995e-01;3.030689656734466553e-01;2.236492186784744263e-02
-2.514569647610187531e-02;2.092972248792648315e-01;-4.545448347926139832e-02;2.563996016979217529e-01;-2.582927942276000977e-01;2.583424188196659088e-02;-1.343887597322463989e-01;-5.152429267764091492e-02;-1.293798983097076416e-01;-1.462011635303497314e-01;2.444389909505844116e-01;-2.784234881401062012e-01;-5.485000554472208023e-03;-1.109485849738121033e-01;3.421059846878051758e-01;-1.005948632955551147e-01;1.209384948015213013e-01;-2.746014297008514404e-01;6.617173552513122559e-02;-2.573839724063873291e-01;3.121231794357299805e-01;-6.500490754842758179e-02;-1.396233588457107544e-01;4.508023336529731750e-02;1.828738301992416382e-01;1.378266662359237671e-01;7.606348395347595215e-02;2.865715026855468750e-01;2.863728106021881104e-01;2.430638074874877930e-01;-2.247345447540283203e-01;1.157377362251281738e-01;-2.350177057087421417e-02;-1.336491014808416367e-02;2.648907899856567383e-01;-3.044793307781219482e-01;-2.478041872382164001e-02;3.167987167835235596e-01;-2.036402970552444458e-01;-1.517336219549179077e-01;2.404864728450775146e-01;1.300645023584365845e-01;-1.511813998222351074e-01;2.104855179786682129e-01;1.316955387592315674e-01;9.362377971410751343e-02;-1.121324580162763596e-02;1.191923394799232483e-01;-2.420158386230468750e-01;-9.647069871425628662e-02;1.911726444959640503e-01;-3.417936861515045166e-01;-2.839603647589683533e-02;-1.597277373075485229e-01;1.999301761388778687e-01;-4.624214768409729004e-01;1.205060556530952454e-01;8.178881555795669556e-02;1.970595270395278931e-01;-2.334737628698348999e-01;-3.671015799045562744e-01;-1.201903969049453735e-01;-3.138566389679908752e-02;-5.455875396728515625e-02;3.508503139019012451e-01
9.203699231147766113e-02;-6.582260131835937500e-01;-3.268612548708915710e-02;-2.253006249666213989e-01;-1.048328056931495667e-01;-8.031193912029266357e-02;-1.917485892772674561e-01;-1.086349561810493469e-01;4.457286745309829712e-02;-3.375066220760345459e-01;-9.501413255929946899e-02;-6.580685079097747803e-02;7.445541769266128540e-02;2.314184010028839111e-01;2.261964082717895508e-01;1.295731812715530396e-01;1.549494415521621704e-01;-1.428554654121398926e-01;1.082212179899215698e-01;7.230997830629348755e-02;-9.926771372556686401e-02;3.161500021815299988e-02;-7.140100002288818359e-02;5.909604486078023911e-03;3.858861327171325684e-02;1.259912848472595215e-01;-3.914109170436859131e-01;-7.586032152175903320e-01;-8.115035295486450195e-02;-9.350997395813465118e-03;-3.618202209472656250e-01;2.211294621229171753e-01;-2.661368809640407562e-02;-3.105508983135223389e-01;-8.260757476091384888e-02;3.506573662161827087e-02;-1.381890326738357544e-01;-8.085658401250839233e-02;-5.216516852378845215e-01;-6.811924576759338379e-01;1.594937592744827271e-01;6.209035217761993408e-02;1.652400791645050049e-01;1.497065722942352295e-01;3.118455410003662109e-01;2.327378988265991211e-01;-1.736341863870620728e-01;-2.171230763196945190e-01;5.867398902773857117e-02;2.936218678951263428e-01;2.117736637592315674e-01;2.441894710063934326e-01;-1.749943825416266918e-03;-4.859937354922294617e-02;-6.398749351501464844e-01;2.521507740020751953e-01;1.244758293032646179e-01;-2.332224845886230469e-01;4.936433956027030945e-02;-2.732944488525390625e-01;1.526848692446947098e-02;2.221291363239288330e-01;9.223484992980957031e-02;-2.127945572137832642e-01;-2.693679183721542358e-02
-3.235065564513206482e-02;-1.418345719575881958e-01;1.242673490196466446e-02;1.290089488029479980e-01;2.881475538015365601e-02;-1.805140227079391479e-01;2.758748233318328857e-01;2.236023917794227600e-02;7.291278988122940063e-02;-2.125557065010070801e-01;4.591868519783020020e-01;-2.230020239949226379e-02;3.297251760959625244e-01;-7.466898113489151001e-02;2.661103010177612305e-02;-2.802468538284301758e-01;2.109632939100265503e-01;-2.350484132766723633e-01;-1.280474066734313965e-01;9.927279502153396606e-02;2.969389557838439941e-01;1.303987503051757812e-01;-1.503680050373077393e-01;-9.154168516397476196e-02;-1.426349431276321411e-01;3.779238089919090271e-02;8.260769397020339966e-02;2.965319156646728516e-01;-1.362150311470031738e-01;-1.838029175996780396e-01;-1.625992655754089355e-01;1.723824888467788696e-01;-1.710344552993774414e-01;3.191106617450714111e-01;4.417218640446662903e-02;-1.276655346155166626e-01;2.378885298967361450e-01;-1.445751488208770752e-01;2.493669539690017700e-01;-2.229285389184951782e-01;-2.360522747039794922e-01;-2.725545167922973633e-01;-3.373242020606994629e-01;9.574902802705764771e-02;-3.458580672740936279e-01;-1.704986989498138428e-01;1.638870239257812500e-01;-1.907945610582828522e-02;1.027021408081054688e-01;2.359799481928348541e-02;4.294746518135070801e-01;-9.843608364462852478e-03;-2.680153250694274902e-01;1.047977507114410400e-01;-1.269127577543258667e-01;-2.223767712712287903e-02;2.003190219402313232e-01;2.071577822789549828e-03;-6.770798563957214355e-01;-9.784317575395107269e-03;-1.224910095334053040e-01;2.068813145160675049e-01;-1.760601848363876343e-01;-6.731204390525817871e-01;-9.439463913440704346e-02
2.155765593051910400e-01;-1.898875832557678223e-01;2.162140160799026489e-01;-8.854167163372039795e-02;-2.419429272413253784e-01;2.142506241798400879e-01;3.205179870128631592e-01;2.593961060047149658e-01;-1.890491247177124023e-01;-2.290821522474288940e-01;8.413691073656082153e-02;-3.518555313348770142e-02;-2.140548080205917358e-01;1.791446655988693237e-01;4.519031196832656860e-02;4.892848432064056396e-01;2.095324695110321045e-01;-1.243795156478881836e-01;6.501809693872928619e-03;-2.605968713760375977e-01;-3.460341393947601318e-01;-9.646800160408020020e-02;-2.898868024349212646e-01;9.390285611152648926e-02;4.610123578459024429e-03;1.613695025444030762e-01;1.444039642810821533e-01;-8.103608340024948120e-02;-3.707510530948638916e-01;-1.076139416545629501e-02;1.318213194608688354e-01;3.633956313133239746e-01;-2.483691833913326263e-02;-2.687963424250483513e-03;-2.647706568241119385e-01;-9.292441606521606445e-02;2.658738382160663605e-02;-2.159960567951202393e-01;5.682916566729545593e-02;4.639193788170814514e-02;-1.276331543922424316e-01;1.844147592782974243e-01;2.597250640392303467e-01;-1.761187463998794556e-01;4.230883717536926270e-01;1.466126590967178345e-01;-6.093096137046813965e-01;-2.047166526317596436e-01;2.111880779266357422e-01;1.548840701580047607e-01;-3.850947618484497070e-01;1.456458866596221924e-01;2.399005591869354248e-01;1.382047086954116821e-01;2.281650304794311523e-01;2.207805365324020386e-01;-4.916827380657196045e-01;-2.301096767187118530e-01;-6.050116419792175293e-01;-1.758259236812591553e-01;-3.407779932022094727e-01;1.988404802978038788e-02;1.136973127722740173e-01;4.709009528160095215e-01;-1.852139085531234741e-01
5.462665110826492310e-02;4.150906801223754883e-01;-3.343710899353027344e-01;4.718297626823186874e-03;2.488865703344345093e-01;-2.564297318458557129e-01;-3.916208148002624512e-01;-3.951079845428466797e-01;-1.646157950162887573e-01;1.712127476930618286e-01;2.029791772365570068e-01;9.262298233807086945e-03;-1.073002442717552185e-01;-2.007456719875335693e-01;9.191326797008514404e-02;2.334500700235366821e-01;-3.069159984588623047e-01;1.758694835007190704e-02;5.996491760015487671e-02;1.617702543735504150e-01;-9.343207627534866333e-02;4.171136021614074707e-02;1.548320055007934570e-01;3.733123838901519775e-02;5.578119307756423950e-02;-5.888515710830688477e-01;-1.297758668661117554e-01;-3.278203904628753662e-01;1.250808238983154297e-01;1.655930131673812866e-01;-5.861220359802246094e-01;1.579058319330215454e-01;3.201759159564971924e-01;1.651981174945831299e-01;1.663426011800765991e-01;3.306412100791931152e-01;1.526056230068206787e-01;-7.181515097618103027e-01;3.894473193213343620e-03;1.645023524761199951e-01;9.672562591731548309e-03;2.367940247058868408e-01;-2.751263678073883057e-01;2.673690319061279297e-01;8.065568655729293823e-02;-8.003287017345428467e-02;-1.625812426209449768e-02;2.615841329097747803e-01;-2.814091742038726807e-01;4.354245215654373169e-02;3.523317575454711914e-01;-1.037586480379104614e-01;2.864734530448913574e-01;-3.822976723313331604e-03;1.059551611542701721e-01;-2.093788236379623413e-01;8.880908042192459106e-02;-1.581273525953292847e-01;-5.644432306289672852e-01;-1.527359932661056519e-01;1.149834096431732178e-01;-4.778566770255565643e-03;-1.388671547174453735e-01;-7.878793030977249146e-02;-2.705031931400299072e-01
-9.208500385284423828e-02;-7.925579696893692017e-02;-3.043138980865478516e-01;-1.852108240127563477e-01;1.478752046823501587e-01;2.702060341835021973e-01;-4.989670217037200928e-01;-2.816877327859401703e-02;2.947521805763244629e-01;4.504124224185943604e-01;9.542834758758544922e-02;4.898642376065254211e-02;-6.999377906322479248e-02;-1.649366319179534912e-01;8.810508251190185547e-02;3.983328342437744141e-01;-1.931217610836029053e-01;-2.979673147201538086e-01;3.672839701175689697e-01;2.187430709600448608e-01;-4.257365167140960693e-01;-3.593836426734924316e-01;1.242703348398208618e-01;1.454415172338485718e-01;1.229880601167678833e-01;1.578307598829269409e-01;3.956529498100280762e-01;-1.317232102155685425e-01;-1.821543723344802856e-01;3.767784237861633301e-01;-6.748753786087036133e-02;1.638904809951782227e-01;2.519973218441009521e-01;-2.995483875274658203e-01;-4.223429262638092041e-01;-9.843805804848670959e-03;-5.161651223897933960e-02;1.656888276338577271e-01;5.289633870124816895e-01;-4.502845555543899536e-02;1.906676217913627625e-02;-8.486063033342361450e-02;5.583543702960014343e-02;-2.713432908058166504e-02;1.012389734387397766e-01;1.507887095212936401e-01;7.585256546735763550e-02;-3.158729895949363708e-02;-2.315078675746917725e-01;-1.521219164133071899e-01;1.933910548686981201e-01;4.056173861026763916e-01;1.642870455980300903e-01;8.147686719894409180e-02;4.198292195796966553e-01;1.250360161066055298e-01;1.559552848339080811e-01;1.783601790666580200e-01;2.888117730617523193e-01;-2.962825447320938110e-02;2.587517797946929932e-01;9.191983938217163086e-02;-3.098441958427429199e-01;1.508370339870452881e-01;3.093499876558780670e-02
-3.111307621002197266e-01;6.409917259588837624e-04;6.192279234528541565e-02;2.382368296384811401e-01;1.394214034080505371e-01;-3.572625666856765747e-02;4.292652010917663574e-01;-2.044257223606109619e-01;-7.795231789350509644e-02;1.107639819383621216e-01;1.639661639928817749e-01;-4.557913839817047119e-01;-1.356141269207000732e-01;-8.889398723840713501e-02;2.861530706286430359e-02;-2.925249338150024414e-01;1.357156932353973389e-01;-2.645426988601684570e-01;3.152530193328857422e-01;-2.286633849143981934e-02;-5.057502537965774536e-02;6.367277354001998901e-02;2.222447693347930908e-01;2.205541729927062988e-01;-2.500887811183929443e-01;-4.776578843593597412e-01;-2.406802773475646973e-01;-6.805955618619918823e-02;2.129005789756774902e-01;-5.732571333646774292e-02;3.012400269508361816e-01;4.211526811122894287e-01;5.649660527706146240e-02;-9.946352988481521606e-02;8.590970188379287720e-02;1.951276510953903198e-01;5.215222015976905823e-02;-4.874429404735565186e-01;-3.896774351596832275e-01;-2.872300446033477783e-01;4.575820639729499817e-03;-1.678709983825683594e-01;1.019521728157997131e-01;-4.287532567977905273e-01;-1.801213026046752930e-01;-2.618385255336761475e-01;-1.659384518861770630e-01;3.092347979545593262e-01;3.577394783496856689e-01;5.990816280245780945e-02;-1.239852979779243469e-02;-2.551281824707984924e-02;1.623613983392715454e-01;2.175765037536621094e-01;4.070051014423370361e-02;-9.523078054189682007e-02;3.335700929164886475e-02;-1.135313287377357483e-01;-5.423597097396850586e-01;2.408369183540344238e-01;-1.963299512863159180e-02;1.895471960306167603e-01;6.479351967573165894e-02;-6.199684739112854004e-01;-4.212280735373497009e-02
9.268186986446380615e-02;1.470764577388763428e-01;1.291981935501098633e-01;7.072114944458007812e-02;-3.055017292499542236e-01;1.223525628447532654e-01;4.229563847184181213e-02;-2.364546246826648712e-02;4.142870008945465088e-01;-1.383009105920791626e-01;-3.678282797336578369e-01;3.648891150951385498e-01;4.802601784467697144e-02;-2.346662878990173340e-01;-6.979325320571660995e-03;1.942319273948669434e-01;-3.020803928375244141e-01;1.534392386674880981e-01;-1.638034433126449585e-01;-7.297488301992416382e-02;2.664345204830169678e-01;1.823123842477798462e-01;1.592229008674621582e-01;8.356627076864242554e-02;7.910696417093276978e-02;2.233908772468566895e-01;1.086052507162094116e-01;-4.120786488056182861e-01;-3.777997195720672607e-01;-5.213768780231475830e-02;-1.569245457649230957e-01;-4.661490321159362793e-01;1.113628894090652466e-01;-1.034989282488822937e-01;-1.085131391882896423e-01;2.064496874809265137e-01;-1.512766331434249878e-01;-1.512697339057922363e-01;-5.244072899222373962e-02;4.326680898666381836e-01;-2.056873142719268799e-01;-1.145110353827476501e-01;-5.091805756092071533e-02;-1.262778043746948242e-01;-6.871328949928283691e-01;3.054277598857879639e-01;2.616064250469207764e-01;2.547514736652374268e-01;-5.492983460426330566e-01;1.841732710599899292e-01;-2.160094976425170898e-01;-3.850803896784782410e-02;-7.321372628211975098e-03;2.532996833324432373e-01;-3.831333518028259277e-01;1.190404072403907776e-01;5.975990891456604004e-01;2.779680788516998291e-01;-2.568777203559875488e-01;-8.083781599998474121e-02;3.154914975166320801e-01;-5.773517116904258728e-02;-1.363380998373031616e-01;2.609689533710479736e-01;-3.989056050777435303e-01
-2.263189107179641724e-02;2.538372278213500977e-01;3.502610623836517334e-01;-1.711727082729339600e-01;-2.321510463953018188e-01;-8.861585706472396851e-02;-1.011773347854614258e-01;-1.237213760614395142e-01;3.725487738847732544e-02;1.652493774890899658e-01;1.940474361181259155e-01;-3.886665776371955872e-02;2.703019976615905762e-01;-1.072083711624145508e-01;2.108556926250457764e-01;-1.984040625393390656e-02;-3.954700529575347900e-01;7.296683639287948608e-02;1.197836324572563171e-01;1.651577055454254150e-01;-1.366124600172042847e-01;1.816705614328384399e-01;8.638463169336318970e-02;4.071704670786857605e-02;3.156134486198425293e-01;4.253571927547454834e-01;1.934478580951690674e-01;3.737423121929168701e-01;-8.486009836196899414e-01;-1.785445809364318848e-01;-8.448658883571624756e-02;2.047620266675949097e-01;-1.556103676557540894e-01;-7.023160159587860107e-02;-2.526299953460693359e-01;-2.742347121238708496e-01;-5.663129687309265137e-01;6.811740249395370483e-02;1.121573448181152344e-01;1.229400783777236938e-01;3.114959225058555603e-02;4.045815765857696533e-01;-2.095237374305725098e-02;4.294959455728530884e-02;-9.694528579711914062e-02;-1.822879910469055176e-01;1.706649065017700195e-01;2.988232374191284180e-01;-2.044663764536380768e-03;3.934991732239723206e-02;2.939224839210510254e-01;-4.385446012020111084e-01;1.811079680919647217e-01;-1.353061050176620483e-01;1.313297003507614136e-01;-3.526762127876281738e-01;1.835871189832687378e-01;1.292765699326992035e-02;-1.298754066228866577e-01;-1.778715699911117554e-01;7.056830078363418579e-02;-9.868013113737106323e-02;-2.127215862274169922e-01;8.516556024551391602e-02;1.123150065541267395e-01
-1.242397427558898926e-01;-4.608515202999114990e-01;-1.210868358612060547e-01;2.220538854598999023e-01;-1.874375194311141968e-01;1.449229866266250610e-01;-3.083614110946655273e-01;3.683207929134368896e-01;-2.844223082065582275e-01;1.440753489732742310e-01;-2.538858056068420410e-01;-1.474005877971649170e-01;-2.026637196540832520e-01;-1.254060715436935425e-01;-1.301392763853073120e-01;-3.187043666839599609e-01;-2.978517487645149231e-02;-1.561085581779479980e-01;-1.607148796319961548e-01;-3.806553781032562256e-01;2.200949490070343018e-01;2.320621460676193237e-01;2.844943702220916748e-01;2.468301355838775635e-01;5.964900180697441101e-02;4.383339285850524902e-01;6.131321564316749573e-02;-2.663051337003707886e-02;-1.767954677343368530e-01;2.199179828166961670e-01;2.268018014729022980e-02;-1.010709181427955627e-01;-2.402408421039581299e-01;-2.307576388120651245e-01;5.016403198242187500e-01;-6.088711693882942200e-02;-7.003089040517807007e-02;-1.123953387141227722e-01;-1.238056644797325134e-01;-1.352267563343048096e-01;-1.891903579235076904e-02;2.865327149629592896e-02;-1.491140723228454590e-01;8.869629353284835815e-02;7.855184376239776611e-02;-9.021512418985366821e-02;-4.623027145862579346e-02;-1.409117132425308228e-01;3.940306138247251511e-03;1.797685213387012482e-02;2.530975081026554108e-02;-1.586190015077590942e-01;-3.538210690021514893e-01;1.290090382099151611e-01;-3.214180842041969299e-02;-3.815649077296257019e-02;-2.395474165678024292e-01;-2.010339796543121338e-01;-3.640265762805938721e-01;2.954399883747100830e-01;-1.646219342947006226e-01;2.834100723266601562e-01;-1.720822602510452271e-01;1.625256687402725220e-01;3.136262297630310059e-01
-2.373387813568115234e-01;1.393024027347564697e-01;7.136700674891471863e-03;-1.200488060712814331e-01;-4.024477303028106689e-01;2.471809983253479004e-01;1.002058759331703186e-01;-2.793178893625736237e-02;1.747843027114868164e-01;-2.855478087440133095e-04;1.213098037987947464e-02;3.268424916313961148e-05;2.016756087541580200e-01;-1.599318236112594604e-01;1.641112565994262695e-01;1.389913111925125122e-01;-1.693188548088073730e-01;2.223890572786331177e-01;1.096305325627326965e-01;-2.897995710372924805e-01;2.943831086158752441e-01;1.661869138479232788e-01;4.336998239159584045e-02;2.283778041601181030e-02;7.991489768028259277e-02;-1.799298077821731567e-01;-6.610203068703413010e-03;-1.401052922010421753e-01;-5.770364999771118164e-01;1.620549261569976807e-01;1.361740529537200928e-01;-1.387416273355484009e-01;-3.171510249376296997e-02;2.040428817272186279e-01;-4.726237654685974121e-01;3.206450045108795166e-01;1.527699828147888184e-02;1.327590793371200562e-01;1.609281152486801147e-01;-1.889816224575042725e-01;-3.647094964981079102e-01;-7.273092120885848999e-02;-2.114739120006561279e-01;1.234986931085586548e-01;-9.665832668542861938e-02;-1.505585163831710815e-01;-1.674693226814270020e-01;-2.849995791912078857e-01;-1.499404013156890869e-01;7.330506574362516403e-03;9.324797242879867554e-02;-1.616887003183364868e-01;1.365915089845657349e-01;-2.603895664215087891e-01;6.634201854467391968e-02;2.711251974105834961e-01;1.832518577575683594e-01;-1.631589531898498535e-01;-2.513414025306701660e-01;1.962895095348358154e-01;-1.572169214487075806e-01;-2.427756041288375854e-01;-2.896558679640293121e-02;-3.673745393753051758e-01;-1.061121076345443726e-01
2.117701023817062378e-01;-1.889396458864212036e-01;-7.450836151838302612e-02;1.741588264703750610e-01;2.121984064579010010e-01;4.333128333091735840e-01;-3.521954417228698730e-01;-5.069242119789123535e-01;1.168282628059387207e-01;-2.435483969748020172e-02;2.973171472549438477e-01;-1.363387554883956909e-01;-4.547371268272399902e-01;-2.137869298458099365e-01;-9.781482815742492676e-02;-2.773246169090270996e-01;-2.331632226705551147e-01;5.979447159916162491e-03;-7.728491909801959991e-03;1.115826983004808426e-02;-1.190962195396423340e-01;2.111663669347763062e-01;3.155273199081420898e-01;-5.972962081432342529e-02;2.116488814353942871e-01;6.070011481642723083e-02;1.307069808244705200e-01;-1.000261306762695312e-01;1.331639885902404785e-01;-1.251458972692489624e-01;-1.462886929512023926e-01;1.636550426483154297e-01;-3.166970908641815186e-01;-2.945500314235687256e-01;4.637899994850158691e-02;-1.277716010808944702e-01;-1.037566177546977997e-02;-1.705789938569068909e-02;3.526418656110763550e-02;4.525370597839355469e-01;2.728678882122039795e-01;3.568110764026641846e-01;-4.381333291530609131e-01;5.229926705360412598e-01;4.690934717655181885e-02;1.962402313947677612e-01;1.577590852975845337e-01;3.111083507537841797e-01;-1.532821506261825562e-01;2.609579265117645264e-01;-6.137585639953613281e-02;-8.372624963521957397e-02;-3.086793236434459686e-02;2.816989421844482422e-01;9.485741145908832550e-03;-1.790226995944976807e-01;-4.999304115772247314e-01;3.091401159763336182e-01;-1.137664392590522766e-01;2.020390778779983521e-01;4.837332367897033691e-01;-2.596243619918823242e-01;-1.610297411680221558e-01;-1.192954778671264648e-01;-4.069132357835769653e-02
2.388667548075318336e-03;1.142810955643653870e-01;5.489775445312261581e-03;1.740905940532684326e-01;-4.738853871822357178e-01;-8.911918103694915771e-02;-1.666170656681060791e-01;-1.194619908928871155e-01;-1.861896961927413940e-01;-1.011935807764530182e-02;1.307921558618545532e-01;-1.150030121207237244e-01;1.001346558332443237e-01;6.934241205453872681e-02;6.755737215280532837e-02;1.577690243721008301e-01;1.754517257213592529e-01;-1.440986841917037964e-01;2.162565141916275024e-01;-1.001568138599395752e-01;1.736337989568710327e-01;1.700978726148605347e-01;1.260954234749078751e-02;-7.775974273681640625e-02;-2.719402909278869629e-01;-1.212745998054742813e-02;1.769333779811859131e-01;3.124018311500549316e-01;-3.257999420166015625e-01;-1.226810067892074585e-01;-4.149287194013595581e-02;-5.531437397003173828e-01;-2.459963783621788025e-02;7.254859805107116699e-02;2.317173331975936890e-01;9.048201143741607666e-02;-3.365796804428100586e-01;2.145224958658218384e-01;4.984203353524208069e-02;1.829538643360137939e-01;9.978263825178146362e-02;2.875134944915771484e-01;-1.133898347616195679e-01;6.882935017347335815e-02;-4.277781844139099121e-01;1.429575234651565552e-01;-7.101973891258239746e-02;-5.755000710487365723e-01;-3.463163375854492188e-01;2.599089145660400391e-01;-2.608533799648284912e-01;-3.088320493698120117e-01;3.907003104686737061e-01;1.995656266808509827e-02;1.001138314604759216e-01;-1.626259386539459229e-01;-1.719992160797119141e-01;5.803932249546051025e-02;5.317369848489761353e-02;1.398227363824844360e-01;6.911521404981613159e-02;1.274852156639099121e-01;1.943940371274948120e-01;6.348586082458496094e-02;1.147088557481765747e-01
1.179606188088655472e-02;-1.095220893621444702e-01;2.781895995140075684e-01;-1.589175127446651459e-02;2.822390496730804443e-01;-3.479885160923004150e-01;-4.139794781804084778e-02;2.323532998561859131e-01;1.932115703821182251e-01;-3.705717027187347412e-01;-1.061204820871353149e-01;-6.858198344707489014e-02;1.152975708246231079e-01;-6.696295738220214844e-02;-3.531889617443084717e-02;-2.320405691862106323e-01;6.333450973033905029e-02;-9.573452174663543701e-02;-3.944738805294036865e-01;-1.735317856073379517e-01;2.864415645599365234e-01;-5.634855479001998901e-02;2.356190085411071777e-01;-2.802797853946685791e-01;3.366283476352691650e-01;2.294867336750030518e-01;2.814284563064575195e-01;-2.924922704696655273e-01;3.246856033802032471e-01;-4.673706889152526855e-01;3.459043502807617188e-01;1.862239837646484375e-01;1.570476442575454712e-01;4.435759782791137695e-02;-3.239658474922180176e-01;1.578134596347808838e-01;-1.060112938284873962e-01;-2.693035006523132324e-01;2.712091207504272461e-01;-4.558758065104484558e-02;7.913518697023391724e-02;-1.098898798227310181e-01;3.917155265808105469e-01;-4.872724413871765137e-02;1.537088602781295776e-01;7.498865481466054916e-03;-8.558966219425201416e-02;2.864328026771545410e-02;2.636234164237976074e-01;8.420108258724212646e-02;-5.907659418880939484e-03;3.833831548690795898e-01;-6.694971583783626556e-03;2.137980610132217407e-01;1.907018870115280151e-01;3.166094720363616943e-01;-4.520620703697204590e-01;3.197017014026641846e-01;-1.641355752944946289e-01;8.854058384895324707e-02;6.984373927116394043e-02;2.166915982961654663e-01;1.230546161532402039e-01;-2.842983007431030273e-01;3.671658039093017578e-01
1.771640181541442871e-01;-4.063189774751663208e-02;-1.706088185310363770e-01;-3.157130777835845947e-01;-4.723526537418365479e-01;-1.140402629971504211e-01;-1.729285717010498047e-02;2.457822263240814209e-01;3.789919614791870117e-02;-9.490133076906204224e-02;7.247484475374221802e-02;-2.643618583679199219e-01;-2.239038646221160889e-01;2.998043894767761230e-01;-7.797668129205703735e-02;3.051337003707885742e-01;2.998867928981781006e-01;1.573990471661090851e-02;-2.677949145436286926e-02;-9.706431627273559570e-02;9.886082261800765991e-02;-1.731435805559158325e-01;-3.438884317874908447e-01;-1.780080199241638184e-01;3.818514049053192139e-01;-4.533850848674774170e-01;3.531227111816406250e-01;3.059265315532684326e-01;-4.799833297729492188e-01;6.309981644153594971e-02;-3.003853857517242432e-01;-3.375215828418731689e-01;1.851118206977844238e-01;3.403294086456298828e-01;-1.768616735935211182e-01;-2.218273133039474487e-01;1.616491377353668213e-01;-3.724626451730728149e-02;-4.379916489124298096e-01;-4.367778003215789795e-01;-9.997466206550598145e-02;-1.070116087794303894e-01;-3.761639446020126343e-02;-5.633354783058166504e-01;4.512440136750228703e-05;7.860587537288665771e-02;-3.131428956985473633e-01;-1.870778352022171021e-01;4.357606172561645508e-01;1.281777173280715942e-01;-1.321040987968444824e-01;-8.122025988996028900e-03;2.102428376674652100e-01;-2.625203430652618408e-01;1.260661780834197998e-01;4.125078320503234863e-01;-3.182063698768615723e-01;-5.172860994935035706e-02;1.542140692472457886e-01;2.353319078683853149e-01;-1.265394985675811768e-01;2.615879476070404053e-01;-7.663044333457946777e-02;-2.582087814807891846e-01;2.025072425603866577e-01
-3.104763329029083252e-01;2.150409370660781860e-01;-1.836234182119369507e-01;2.650641798973083496e-01;2.255574315786361694e-01;1.348180174827575684e-01;1.338911354541778564e-01;2.103890627622604370e-01;3.706854581832885742e-01;6.237126514315605164e-02;-1.904195845127105713e-01;-4.307346642017364502e-01;2.524517849087715149e-02;-3.730672597885131836e-01;-6.537659168243408203e-01;3.419330716133117676e-01;2.272191643714904785e-01;-1.918426752090454102e-01;1.619017571210861206e-01;6.405430287122726440e-02;-3.632051125168800354e-02;-2.207306213676929474e-02;-1.961244940757751465e-01;1.390278786420822144e-01;2.810834720730781555e-02;1.850479096174240112e-01;-3.899164497852325439e-01;-3.481991291046142578e-01;1.547227054834365845e-01;2.629396021366119385e-01;-1.569882780313491821e-01;-3.475544750690460205e-01;9.012961387634277344e-02;3.813914656639099121e-01;-5.691583082079887390e-02;2.973157167434692383e-01;3.862536251544952393e-01;7.657670974731445312e-02;1.688987612724304199e-01;-7.533395290374755859e-02;2.758365124464035034e-02;-4.332236573100090027e-02;3.371187150478363037e-01;6.240434478968381882e-03;-2.691941559314727783e-01;1.842351397499442101e-03;3.573856055736541748e-01;1.895126551389694214e-01;-3.672364354133605957e-01;6.191867962479591370e-02;2.011515386402606964e-02;2.125361561775207520e-01;2.337625324726104736e-01;3.961863368749618530e-02;-4.871929287910461426e-01;4.403462409973144531e-01;9.173355996608734131e-02;4.782652258872985840e-01;3.411345183849334717e-01;-3.310142755508422852e-01;2.879302203655242920e-02;-8.333975821733474731e-02;-1.186630129814147949e-01;3.551180660724639893e-01;6.644832342863082886e-02
-1.124590516090393066e+00;-4.074690490961074829e-02;2.728006243705749512e-02;-3.707233667373657227e-01;-1.504230648279190063e-01;-1.938553303480148315e-01;7.521019130945205688e-02;-1.138928830623626709e-01;-1.253250688314437866e-01;-5.849336087703704834e-02;7.456611841917037964e-02;6.849654018878936768e-02;-1.608113944530487061e-02;-2.710353136062622070e-01;1.891319081187248230e-02;7.799228280782699585e-02;-2.613485753536224365e-01;1.744401603937149048e-01;1.895911097526550293e-01;-1.843070089817047119e-01;-3.272861838340759277e-01;4.546520859003067017e-02;-3.879244625568389893e-01;-7.264120969921350479e-03;-3.134744167327880859e-01;-2.633948922157287598e-01;3.349327445030212402e-01;2.841074466705322266e-01;3.745679259300231934e-01;5.944463983178138733e-02;3.224497139453887939e-01;-1.722117513418197632e-01;1.444794833660125732e-01;2.096908688545227051e-01;2.125896513462066650e-01;1.765195876359939575e-01;-1.112785860896110535e-01;2.307717949151992798e-01;1.444266140460968018e-01;-1.637466996908187866e-02;-5.345127359032630920e-02;3.371464014053344727e-01;-1.844349950551986694e-01;6.173834949731826782e-02;3.036135435104370117e-01;-4.059579670429229736e-01;-3.192876279354095459e-01;-1.440162360668182373e-01;1.030795127153396606e-01;8.828669786453247070e-02;1.543745584785938263e-02;9.673210978507995605e-02;2.055138498544692993e-01;-3.473702073097229004e-01;1.838764399290084839e-01;2.847304344177246094e-01;1.692419499158859253e-01;2.444455958902835846e-02;-1.366253644227981567e-01;-3.560707569122314453e-01;-2.322936430573463440e-02;-2.203470021486282349e-01;6.964166462421417236e-02;-5.052179913036525249e-04;1.025818753987550735e-02
1.392176449298858643e-01;1.231934279203414917e-01;2.465259730815887451e-01;-8.001174032688140869e-02;1.522988229990005493e-01;2.646883130073547363e-01;4.879817739129066467e-02;-1.205232292413711548e-01;1.843601763248443604e-01;-4.084527492523193359e-01;7.778514921665191650e-02;-5.608929991722106934e-01;-4.093346297740936279e-01;-6.309735178947448730e-01;-3.255209028720855713e-01;2.939434051513671875e-01;2.971853315830230713e-01;-5.960076302289962769e-02;2.097783535718917847e-01;-2.326653301715850830e-01;1.001108959317207336e-01;-2.409764938056468964e-02;-2.397993579506874084e-02;5.584471300244331360e-02;-3.260436058044433594e-01;-4.940112233161926270e-01;1.407114565372467041e-01;3.410896956920623779e-01;-1.695785820484161377e-01;-5.590254813432693481e-02;3.467733561992645264e-01;-8.970227837562561035e-02;-2.196839600801467896e-01;2.369444370269775391e-01;-1.023717075586318970e-01;6.099372729659080505e-02;1.948939077556133270e-02;1.725967675447463989e-01;-2.753297388553619385e-01;9.573998302221298218e-02;-3.861269354820251465e-01;-8.585537225008010864e-02;-2.203298509120941162e-01;7.817178964614868164e-02;1.674023568630218506e-01;-3.409603238105773926e-01;-3.250170126557350159e-02;-1.216482650488615036e-02;-1.538773775100708008e-01;5.817458406090736389e-02;-3.155797719955444336e-01;5.026698708534240723e-01;-1.321502476930618286e-01;2.151097804307937622e-01;4.082877337932586670e-01;-3.689829409122467041e-01;-7.375517487525939941e-01;8.653355389833450317e-02;1.398481577634811401e-01;4.050877094268798828e-01;2.783799311146140099e-03;-2.911089360713958740e-01;-2.047506421804428101e-01;1.544429063796997070e-01;9.466368705034255981e-02
-2.386432737112045288e-01;2.810769081115722656e-01;9.757486730813980103e-02;-2.124368771910667419e-02;2.245994061231613159e-01;-2.082816660404205322e-01;6.989504396915435791e-02;-7.149700820446014404e-02;-3.794519305229187012e-01;-3.920707404613494873e-01;1.633424162864685059e-01;-3.325453698635101318e-01;-2.965776808559894562e-02;2.485353499650955200e-01;2.222904264926910400e-01;-2.938462197780609131e-01;1.714325696229934692e-02;8.326213806867599487e-02;-1.581720262765884399e-01;-6.998939812183380127e-02;-2.531354129314422607e-01;-7.224050909280776978e-02;-3.383123874664306641e-01;2.899796962738037109e-01;-2.031815052032470703e-01;1.896847337484359741e-01;-1.654161722399294376e-03;-2.084947973489761353e-01;6.778842210769653320e-02;5.057168006896972656e-02;1.904188282787799835e-02;1.915817260742187500e-01;-1.968537271022796631e-01;-1.704172790050506592e-01;1.290200948715209961e-01;-2.201546430587768555e-01;2.682030200958251953e-01;-2.911883890628814697e-01;1.845586001873016357e-01;2.248111814260482788e-01;2.920237183570861816e-01;1.617025882005691528e-01;-3.749432861804962158e-01;-2.075024247169494629e-01;-2.267149686813354492e-01;4.409285634756088257e-02;2.248821258544921875e-01;-6.468234211206436157e-02;2.631223797798156738e-01;-1.752377897500991821e-01;1.367193311452865601e-01;2.389838397502899170e-01;9.447936713695526123e-02;1.981430053710937500e-01;-3.160077333450317383e-01;-3.873912245035171509e-02;-1.358632296323776245e-01;-2.003808170557022095e-01;-1.929167658090591431e-01;1.132897660136222839e-01;5.078919604420661926e-02;3.078235313296318054e-02;-5.538199469447135925e-02;-2.255210429430007935e-01;1.004714891314506531e-01
-1.957599520683288574e-01;-1.222448572516441345e-01;-4.564410820603370667e-02;6.382445096969604492e-01;2.219497561454772949e-01;1.379772424697875977e-01;-4.202762544155120850e-01;-1.809392720460891724e-01;-6.192998886108398438e-01;3.237771093845367432e-01;3.034958839416503906e-01;2.006826847791671753e-01;-2.943982183933258057e-01;2.395576834678649902e-01;-1.816859841346740723e-01;-1.780927777290344238e-01;3.893470391631126404e-02;1.399225890636444092e-01;-1.277758479118347168e-01;2.797862589359283447e-01;3.186099827289581299e-01;1.063140258193016052e-01;-6.661187410354614258e-01;1.706768721342086792e-01;-1.351327896118164062e-01;-2.949671149253845215e-01;-1.267694681882858276e-01;-5.618123412132263184e-01;2.993240952491760254e-01;4.237755239009857178e-01;4.117860272526741028e-02;-3.015131354331970215e-01;-2.657378911972045898e-01;-2.146552875638008118e-02;-1.681722253561019897e-01;5.375372618436813354e-02;4.975461214780807495e-02;-3.896499797701835632e-02;1.565534770488739014e-01;2.237534075975418091e-01;-1.741046458482742310e-02;1.390588581562042236e-01;6.415404379367828369e-02;1.966409832239151001e-01;7.476072013378143311e-02;-3.154909610748291016e-01;1.957322508096694946e-01;1.694372296333312988e-01;-4.789589345455169678e-01;1.084261983633041382e-01;-1.067908629775047302e-01;1.634382754564285278e-01;3.712232410907745361e-02;-2.129323035478591919e-01;-4.151481389999389648e-01;-6.614075303077697754e-01;4.670477509498596191e-01;6.742096543312072754e-01;1.802429705858230591e-01;-3.368464112281799316e-01;2.424519695341587067e-02;-1.526680737733840942e-01;-1.953514367341995239e-01;-1.793426275253295898e-02;-3.238451182842254639e-01
1.464287638664245605e-01;2.428314685821533203e-01;-4.026641845703125000e-01;-2.215938270092010498e-01;-2.198331654071807861e-01;4.614428281784057617e-01;-6.680583208799362183e-02;-5.982059240341186523e-01;2.709176242351531982e-01;1.305759549140930176e-01;2.281444370746612549e-01;4.165287315845489502e-02;1.944873481988906860e-01;3.075947463512420654e-01;-1.348613798618316650e-01;1.927952021360397339e-01;2.360412478446960449e-01;-1.564235538244247437e-01;3.917959332466125488e-01;1.072443500161170959e-01;3.294112905859947205e-02;-5.956879854202270508e-01;-2.305515110492706299e-02;1.965460479259490967e-01;1.599690467119216919e-01;-8.865501731634140015e-02;-2.026338577270507812e-01;1.415329426527023315e-01;1.204082220792770386e-01;-2.176899015903472900e-01;-3.197390139102935791e-01;-1.585879474878311157e-01;-3.636201918125152588e-01;-3.962400183081626892e-02;1.558791399002075195e-01;2.262488305568695068e-01;2.975543141365051270e-01;-3.472013473510742188e-01;7.505967468023300171e-02;1.808691620826721191e-01;2.875576019287109375e-01;-1.347290277481079102e-01;4.199101030826568604e-01;-4.604192674160003662e-01;-3.474431335926055908e-01;-1.134132593870162964e-01;3.121132850646972656e-01;4.895181208848953247e-02;-6.508888304233551025e-02;2.491799890995025635e-01;-7.269934564828872681e-02;-3.155989646911621094e-01;-5.338982865214347839e-02;3.137712180614471436e-01;-1.378502547740936279e-01;-1.418852657079696655e-01;6.888452172279357910e-02;1.287630349397659302e-01;-1.855894550681114197e-02;-1.405774354934692383e-01;-2.014978826045989990e-01;-1.456454545259475708e-01;6.107507646083831787e-02;3.620257377624511719e-01;9.067703038454055786e-02
6.712209433317184448e-02;-5.774483680725097656e-01;2.683413214981555939e-02;-3.182855434715747833e-03;-1.283036917448043823e-01;3.686839640140533447e-01;-3.948048949241638184e-01;2.508222758769989014e-01;1.299902945756912231e-01;-3.763449192047119141e-01;4.080297350883483887e-01;-6.838505715131759644e-02;4.664362370967864990e-01;5.671570301055908203e-01;1.218291819095611572e-01;6.589157581329345703e-01;1.084762960672378540e-01;1.738173365592956543e-01;-7.827126383781433105e-01;-8.197072893381118774e-02;-1.253811419010162354e-01;2.259718924760818481e-01;-2.402339130640029907e-01;-3.404525518417358398e-01;4.177286326885223389e-01;-2.048237174749374390e-01;1.995409429073333740e-01;1.536087691783905029e-02;-4.656403660774230957e-01;3.418252244591712952e-02;1.756139397621154785e-01;6.786240637302398682e-02;-2.918403148651123047e-01;3.104174733161926270e-01;2.170329838991165161e-01;-4.347741603851318359e-01;1.307685226202011108e-01;-2.895467579364776611e-01;5.554089546203613281e-01;-7.991916686296463013e-02;4.544945955276489258e-01;1.055668145418167114e-01;9.724412858486175537e-02;-5.572338700294494629e-01;4.392958804965019226e-02;-1.972941011190414429e-01;-2.962742447853088379e-01;-1.879873126745223999e-01;2.274326086044311523e-01;-1.977779716253280640e-02;-4.333480894565582275e-01;2.208483219146728516e-01;-4.002287089824676514e-01;2.599750459194183350e-01;-1.105491966009140015e-01;-2.468038350343704224e-01;2.131130844354629517e-01;-2.668510973453521729e-01;-1.308983564376831055e-01;4.759193360805511475e-01;-3.578834235668182373e-01;1.454038619995117188e-01;-6.146685779094696045e-02;3.572594821453094482e-01;-3.916955292224884033e-01
-3.458887040615081787e-01;7.552175223827362061e-02;-1.407695412635803223e-01;-1.165466785430908203e+00;-7.385514676570892334e-02;-1.532346010208129883e-01;-2.111001610755920410e-01;2.826333045959472656e-01;-3.241795599460601807e-01;1.999037861824035645e-01;2.071174234151840210e-02;-2.995508909225463867e-01;-9.257816523313522339e-02;4.757988080382347107e-02;-1.617333292961120605e-01;-5.079369619488716125e-02;4.604772329330444336e-01;1.389616131782531738e-01;-4.086253046989440918e-01;8.184485882520675659e-02;-3.223432973027229309e-02;2.351171225309371948e-01;-1.060524061322212219e-01;4.492828249931335449e-02;3.420390486717224121e-01;-2.698906511068344116e-02;-2.947537600994110107e-01;-1.009497139602899551e-02;-5.952049791812896729e-02;1.786613911390304565e-01;-2.246524542570114136e-01;-2.566201984882354736e-01;1.079355031251907349e-01;7.511883974075317383e-02;3.311913609504699707e-01;-8.288349956274032593e-02;9.495437890291213989e-02;-3.955701887607574463e-01;-1.025831177830696106e-01;-6.072409451007843018e-02;-7.877058535814285278e-02;-1.755991205573081970e-02;2.847029566764831543e-01;1.500970963388681412e-02;-1.334143150597810745e-02;-1.312757134437561035e-01;1.261111348867416382e-01;2.917656600475311279e-01;3.313855826854705811e-01;-2.600448206067085266e-02;2.727957665920257568e-01;-7.193405181169509888e-02;-1.661924272775650024e-01;-4.505823552608489990e-02;-4.356287121772766113e-01;1.889808923006057739e-01;-2.315675169229507446e-01;-1.400185078382492065e-01;-8.439275622367858887e-02;4.639154374599456787e-01;3.760709762573242188e-01;1.519982814788818359e-01;5.196657776832580566e-02;1.134575307369232178e-01;5.892343353480100632e-03
1.896297484636306763e-01;1.389538794755935669e-01;-1.381704956293106079e-01;-5.747778415679931641e-01;5.350603535771369934e-02;2.073679119348526001e-01;-1.264042556285858154e-01;-6.124035455286502838e-03;2.902718484401702881e-01;-2.266513258218765259e-01;1.003427430987358093e-01;2.057345770299434662e-02;7.426058501005172729e-02;-9.170199744403362274e-03;-1.596230119466781616e-01;1.063192039728164673e-01;9.018606692552566528e-02;1.120427995920181274e-01;-1.156377643346786499e-01;-9.483071416616439819e-02;1.461876183748245239e-01;5.555508658289909363e-03;-1.689237207174301147e-01;-2.514587715268135071e-02;-1.603659689426422119e-01;-1.111132353544235229e-01;-6.412696838378906250e-02;-1.006228029727935791e-01;-2.176732383668422699e-02;6.592852622270584106e-02;-2.632057666778564453e-01;7.150106132030487061e-02;3.388908505439758301e-01;-2.118031531572341919e-01;-1.620106101036071777e-01;1.654525846242904663e-01;2.433899044990539551e-01;6.080711726099252701e-03;6.700807809829711914e-02;3.247374594211578369e-01;-2.005438059568405151e-01;2.672546729445457458e-02;-1.703951805830001831e-01;-2.487962096929550171e-01;-9.791872650384902954e-02;-1.098256483674049377e-01;8.229990303516387939e-02;-6.729942280799150467e-03;1.445026099681854248e-01;-1.389123648405075073e-01;-9.143076837062835693e-02;1.875309944152832031e-01;-1.673143357038497925e-01;1.490499824285507202e-01;-2.376707494258880615e-01;3.733466193079948425e-02;-1.193838641047477722e-01;1.996715813875198364e-01;-7.356880307197570801e-01;-2.267807908356189728e-02;2.515369653701782227e-01;-6.922768801450729370e-02;1.629581451416015625e-01;2.480101138353347778e-01;-7.745672017335891724e-02
3.127197623252868652e-01;-3.117924630641937256e-01;-1.027813106775283813e-01;-3.705492913722991943e-01;-1.192139014601707458e-01;-5.693955719470977783e-02;-4.735521227121353149e-02;2.090388834476470947e-01;-2.090219706296920776e-01;-4.677918255329132080e-01;-7.770367898046970367e-03;1.042836159467697144e-01;-1.454824954271316528e-01;1.037455797195434570e-01;7.134194672107696533e-02;-8.162143081426620483e-02;-2.272126376628875732e-01;-4.799843300133943558e-03;-2.540386915206909180e-01;-1.923334151506423950e-01;9.235280752182006836e-02;1.058645322918891907e-01;-7.394894026219844818e-03;5.515086278319358826e-02;7.054685056209564209e-02;-5.770987831056118011e-03;1.652072966098785400e-01;6.351797282695770264e-02;-3.543578088283538818e-01;1.444150228053331375e-02;-9.563092887401580811e-02;-1.776687949895858765e-01;5.293427035212516785e-02;9.455822408199310303e-02;-4.100259542465209961e-01;7.539615780115127563e-02;2.918225824832916260e-01;-2.532692253589630127e-01;-2.306611090898513794e-01;1.513423025608062744e-01;-9.239184856414794922e-02;8.865398913621902466e-02;-1.982704102993011475e-01;-5.031911190599203110e-03;-1.573723852634429932e-01;1.607523672282695770e-02;1.191457360982894897e-01;-4.957887530326843262e-01;5.298084393143653870e-02;9.537361562252044678e-02;-1.768055111169815063e-01;1.808574944734573364e-01;-2.381084114313125610e-01;1.770869791507720947e-01;-1.047820523381233215e-01;1.528347581624984741e-01;4.312177002429962158e-02;-1.057312339544296265e-01;-4.269881248474121094e-01;1.854256242513656616e-01;7.223131507635116577e-02;1.362205743789672852e-01;-3.096065521240234375e-01;2.930639386177062988e-01;-5.917972698807716370e-02
-2.842244207859039307e-01;5.618831142783164978e-02;-1.288739591836929321e-01;6.428292393684387207e-02;2.422561496496200562e-01;-4.075391590595245361e-02;1.965213119983673096e-01;3.114637136459350586e-01;1.467334330081939697e-01;9.640361368656158447e-02;-3.375344574451446533e-01;-6.999697685241699219e-01;6.796672940254211426e-02;-4.286853596568107605e-02;6.670386344194412231e-02;-1.575381010770797729e-01;-1.114028412848711014e-02;1.490872651338577271e-01;6.901807617396116257e-03;-6.261031329631805420e-02;-1.114718914031982422e-01;4.130341112613677979e-02;2.364943921566009521e-01;1.579709053039550781e-01;-4.314206838607788086e-01;-7.027181982994079590e-02;1.653817892074584961e-01;4.238271117210388184e-01;3.114792406558990479e-01;1.388136297464370728e-01;-2.906867563724517822e-01;-2.056629955768585205e-01;8.010096848011016846e-02;-8.541631698608398438e-02;6.406280398368835449e-02;-6.101208329200744629e-01;3.587595373392105103e-02;-6.753867864608764648e-02;-2.396352589130401611e-01;2.715872041881084442e-02;2.246721982955932617e-01;4.821002483367919922e-02;1.045882031321525574e-01;-5.567015707492828369e-02;-4.886516928672790527e-01;-5.360547304153442383e-01;-1.827523559331893921e-01;2.299252711236476898e-02;-7.499257922172546387e-01;-1.466524749994277954e-01;-1.369770020246505737e-01;-5.572038935497403145e-04;2.988480329513549805e-01;3.218722343444824219e-01;3.912971615791320801e-01;-2.115698009729385376e-01;-3.074968755245208740e-01;-2.172449082136154175e-01;-6.386188864707946777e-01;-1.728265434503555298e-01;-3.846888244152069092e-02;8.505059033632278442e-02;-2.174750566482543945e-01;2.316315099596977234e-02;-7.098005712032318115e-02
-8.533094078302383423e-02;-5.127311125397682190e-02;-3.700521886348724365e-01;-1.042752787470817566e-01;2.538260519504547119e-01;5.755381286144256592e-02;3.417873978614807129e-01;-9.829885512590408325e-02;-6.805595755577087402e-01;2.983127236366271973e-01;2.754259295761585236e-02;-2.668482363224029541e-01;-8.223048597574234009e-02;9.947913885116577148e-02;1.063339691609144211e-02;-9.206094741821289062e-01;-7.841750234365463257e-02;-3.412958383560180664e-01;3.755228221416473389e-01;4.818553924560546875e-01;8.429425209760665894e-02;-7.803301792591810226e-03;-4.991713911294937134e-02;-3.142765164375305176e-01;-1.042078360915184021e-01;-3.488120436668395996e-01;-2.783511877059936523e-01;-3.713017702102661133e-01;1.005324646830558777e-01;-3.603538274765014648e-01;-2.031358033418655396e-01;-2.049100697040557861e-01;2.167486846446990967e-01;1.566037982702255249e-01;2.353640943765640259e-01;-4.713651835918426514e-01;3.995749950408935547e-01;1.763491332530975342e-01;2.902828752994537354e-01;-5.121605992317199707e-01;2.045597322285175323e-02;-1.782994866371154785e-01;3.326192796230316162e-01;-7.768090069293975830e-02;4.677914455533027649e-02;1.577665209770202637e-01;8.882481604814529419e-02;6.092319265007972717e-02;-1.672975867986679077e-01;-7.416516542434692383e-02;3.255772888660430908e-01;7.002346962690353394e-02;-2.689583599567413330e-01;1.593992114067077637e-02;-4.048833847045898438e-01;-7.068588733673095703e-01;5.940148606896400452e-02;-2.387602999806404114e-02;-1.543792337179183960e-01;1.161308288574218750e-01;-9.942135959863662720e-02;2.481427341699600220e-01;3.956229612231254578e-02;9.136477112770080566e-02;3.655332028865814209e-01
3.619899749755859375e-01;-1.561212539672851562e+00;1.480095684528350830e-01;-4.161261394619941711e-02;6.012552380561828613e-01;-9.861218184232711792e-02;-8.127339929342269897e-02;-1.090226843953132629e-01;-2.025471627712249756e-01;4.900879859924316406e-01;9.570889174938201904e-02;2.368230074644088745e-01;9.466052800416946411e-02;-2.326680421829223633e-01;-1.165129244327545166e-01;-2.152770161628723145e-01;2.564434707164764404e-01;3.412881493568420410e-01;-1.710747927427291870e-01;8.491361141204833984e-02;-1.153729259967803955e-01;-7.218636572360992432e-03;-7.979393005371093750e-01;-1.659917458891868591e-02;1.284874677658081055e-01;-8.126345276832580566e-02;2.942453026771545410e-01;2.849581837654113770e-01;1.143182069063186646e-01;-1.048439502716064453e+00;-7.398515194654464722e-02;-2.957950234413146973e-01;1.499364227056503296e-01;-1.368424296379089355e-01;7.228247821331024170e-02;-5.506255850195884705e-02;-2.769130766391754150e-01;7.681756466627120972e-02;-2.096624374389648438e-01;1.957095563411712646e-01;4.476075172424316406e-01;-3.724588453769683838e-01;1.096701100468635559e-01;1.395872533321380615e-01;1.165001094341278076e-01;-3.899249434471130371e-01;9.476182609796524048e-02;-6.055406332015991211e-01;-1.878980100154876709e-01;4.610530287027359009e-02;-3.188898861408233643e-01;-6.038288772106170654e-02;-8.651406504213809967e-03;-7.256415206938982010e-03;9.454489499330520630e-02;-3.247249126434326172e-01;-2.304940819740295410e-01;-1.335508674383163452e-01;2.070355564355850220e-01;2.318860292434692383e-01;1.473711729049682617e-01;-2.319949269294738770e-01;-2.554463744163513184e-01;-9.272614866495132446e-02;-2.429113388061523438e-01
2.445606589317321777e-01;1.243536099791526794e-01;-1.108191683888435364e-01;5.762346461415290833e-02;-6.267663836479187012e-02;3.116048574447631836e-01;-5.412029027938842773e-01;2.632976472377777100e-01;-2.223008722066879272e-01;2.768008410930633545e-01;-4.567045718431472778e-02;-2.930495142936706543e-01;1.838478595018386841e-01;1.684046983718872070e-01;2.577474415302276611e-01;-1.191979199647903442e-01;-9.590034186840057373e-02;6.272224336862564087e-02;-5.096806287765502930e-01;-2.842870652675628662e-01;2.239670306444168091e-01;6.262241303920745850e-02;-9.805619716644287109e-02;-1.545369476079940796e-01;-2.209184318780899048e-01;1.826921105384826660e-01;-9.777612285688519478e-04;-2.484635710716247559e-01;4.548337310552597046e-02;-2.715849280357360840e-01;-5.586001556366682053e-03;-1.867711395025253296e-01;-3.136221468448638916e-01;-4.010161459445953369e-01;-1.611274927854537964e-01;-2.077104337513446808e-02;-5.289637669920921326e-02;1.211872622370719910e-01;7.505075633525848389e-02;2.635175883769989014e-01;-6.084037572145462036e-02;9.998074173927307129e-02;3.243286609649658203e-01;3.499611513689160347e-03;2.405235171318054199e-01;8.930707722902297974e-02;-2.822999060153961182e-01;8.495153486728668213e-02;-4.747730121016502380e-02;2.513620257377624512e-01;1.834311932325363159e-01;1.345805972814559937e-01;3.166546300053596497e-02;8.135700225830078125e-02;-2.443051338195800781e-01;-3.969670832157135010e-02;-4.824953973293304443e-01;2.389871478080749512e-01;2.621447741985321045e-01;-1.395251750946044922e-01;2.928590476512908936e-01;4.556835442781448364e-02;7.588817179203033447e-02;-5.212995409965515137e-01;-4.130915701389312744e-01
1.913560032844543457e-01;-2.229060605168342590e-02;9.202715754508972168e-02;-2.382685244083404541e-01;-3.930660486221313477e-01;1.666160970926284790e-01;-1.750265061855316162e-02;-4.365600645542144775e-02;-1.096088960766792297e-01;-1.917088329792022705e-01;1.211955398321151733e-01;2.444430887699127197e-01;-1.846781075000762939e-01;1.732486486434936523e-01;-3.117600679397583008e-01;2.615862293168902397e-03;2.091876864433288574e-01;-2.573384344577789307e-01;1.523003727197647095e-01;4.264490306377410889e-01;-2.286980748176574707e-01;3.539758920669555664e-02;4.723290354013442993e-02;1.081994473934173584e-01;1.272787004709243774e-01;-1.904534399509429932e-01;-6.846754252910614014e-02;2.383827865123748779e-01;-6.139940116554498672e-03;-9.351570159196853638e-02;-4.375006854534149170e-01;2.548493146896362305e-01;1.533773988485336304e-01;2.438090145587921143e-01;-1.071926131844520569e-01;-1.362463831901550293e-02;-1.022793501615524292e-01;1.767715662717819214e-01;-2.511365711688995361e-01;7.071612030267715454e-02;5.957579240202903748e-02;1.989482790231704712e-01;2.402699887752532959e-01;2.554705440998077393e-01;9.337659180164337158e-02;3.075519343838095665e-03;-9.424567967653274536e-02;-1.709524691104888916e-01;1.656916290521621704e-01;1.404874119907617569e-02;1.212385520339012146e-01;-1.131492853164672852e-01;3.506646156311035156e-01;-1.536083966493606567e-01;1.086285859346389771e-01;9.538889676332473755e-02;-3.878754079341888428e-01;-3.927551507949829102e-01;8.436130732297897339e-02;-1.573080271482467651e-01;-1.007653325796127319e-01;1.511368453502655029e-01;-1.367545425891876221e-01;1.116171702742576599e-01;4.580843076109886169e-02
4.972032904624938965e-01;4.659719169139862061e-01;2.390176206827163696e-01;3.773483335971832275e-01;1.808605492115020752e-01;-9.287039935588836670e-02;2.074864804744720459e-01;1.118549481034278870e-01;4.613977670669555664e-01;-4.675354436039924622e-02;-1.280723810195922852e-01;2.756898999214172363e-01;1.846240609884262085e-01;3.616690635681152344e-02;-1.134005934000015259e-01;-2.383482456207275391e-02;-3.036213107407093048e-02;-6.123824417591094971e-02;-1.145949289202690125e-01;2.353922426700592041e-01;-9.264419227838516235e-02;5.711424723267555237e-02;2.114264965057373047e-01;2.521742135286331177e-02;-2.079754620790481567e-01;1.528502553701400757e-01;-1.517484337091445923e-01;1.072897240519523621e-01;9.145922027528285980e-03;1.181598752737045288e-01;1.313469721935689449e-03;2.336075901985168457e-02;-1.214332282543182373e-01;1.090187057852745056e-01;-2.180776596069335938e-01;5.145622789859771729e-02;-2.408480346202850342e-01;-2.618154585361480713e-01;2.682124078273773193e-01;3.147835284471511841e-02;-5.081460624933242798e-02;5.624352395534515381e-02;-4.357283934950828552e-02;-3.463810682296752930e-01;-3.168281912803649902e-01;2.661376893520355225e-01;7.012702524662017822e-02;2.224880158901214600e-01;-2.998512089252471924e-01;1.496360003948211670e-01;-1.034566313028335571e-01;-1.153063103556632996e-01;-5.209210515022277832e-01;1.434779912233352661e-01;-7.754807174205780029e-02;-5.128801465034484863e-01;7.254134863615036011e-02;2.918923795223236084e-01;-1.633414477109909058e-01;1.069661974906921387e-01;-8.824262768030166626e-02;-3.428848683834075928e-01;-2.137200236320495605e-01;-7.803851962089538574e-01;-1.564706563949584961e-01
-2.774800658226013184e-01;-2.684496343135833740e-01;1.909889429807662964e-01;-1.269822418689727783e-01;-2.584882974624633789e-01;-2.938840389251708984e-01;4.432569816708564758e-02;-3.494703173637390137e-01;-3.600939512252807617e-01;7.914354093372821808e-03;1.452293992042541504e-01;1.751913875341415405e-01;-5.439456701278686523e-01;1.935448497533798218e-01;7.297350466251373291e-02;-7.028055191040039062e-01;3.226402401924133301e-01;-1.404964029788970947e-01;-8.261284977197647095e-02;2.407081611454486847e-02;-1.528203040361404419e-01;5.440231785178184509e-02;-2.755828574299812317e-02;1.618419960141181946e-02;-3.023810982704162598e-01;1.635315828025341034e-02;-1.026096418499946594e-01;1.326285302639007568e-01;-3.199330568313598633e-01;3.503211960196495056e-02;1.670234650373458862e-01;-1.060540904290974140e-03;1.783402115106582642e-01;3.501566872000694275e-02;2.629388272762298584e-01;-8.419303596019744873e-02;-2.753241956233978271e-01;1.928381621837615967e-01;2.494920194149017334e-01;1.114371865987777710e-01;1.411044448614120483e-01;3.488711118698120117e-01;2.147480398416519165e-01;-5.165127515792846680e-01;4.270675033330917358e-02;2.233069092035293579e-01;5.110166072845458984e-01;-7.712912559509277344e-02;-1.976854205131530762e-01;8.824297785758972168e-02;1.621607691049575806e-01;-1.409565359354019165e-01;1.005127206444740295e-01;-3.617836534976959229e-02;2.736589312553405762e-01;3.416170179843902588e-02;-5.026764869689941406e-01;-2.415259927511215210e-02;3.386554419994354248e-01;-1.885920464992523193e-01;-3.117194771766662598e-01;5.170169472694396973e-01;9.931448847055435181e-02;-9.107195585966110229e-02;-1.761088147759437561e-02
2.180721014738082886e-01;-2.729975879192352295e-01;-1.467019915580749512e-01;-5.165324211120605469e-01;-3.292753398418426514e-01;1.312509030103683472e-01;1.684901118278503418e-02;-1.443879157304763794e-01;-4.076109826564788818e-02;2.758224308490753174e-01;-2.521333694458007812e-01;-3.419739380478858948e-02;-1.163664832711219788e-01;1.726740002632141113e-01;-1.449555275030434132e-03;-2.165376842021942139e-01;1.213319972157478333e-01;-5.052916407585144043e-01;2.095791250467300415e-01;3.332228660583496094e-01;-9.630241990089416504e-02;1.273571550846099854e-01;1.085844784975051880e-01;1.129772365093231201e-01;-3.218361362814903259e-02;4.573097079992294312e-02;7.698138058185577393e-02;-1.193587779998779297e-01;-2.623071372509002686e-01;1.434959936887025833e-02;1.050224006175994873e-01;2.800062596797943115e-01;-7.629112899303436279e-02;1.814042180776596069e-01;-5.431665778160095215e-01;3.610866069793701172e-01;2.858195900917053223e-01;1.942734718322753906e-01;-6.173864379525184631e-02;1.641276776790618896e-01;-1.921113878488540649e-01;-2.958519756793975830e-01;-3.275234699249267578e-01;-4.827556386590003967e-02;-3.214749395847320557e-01;1.490404903888702393e-01;-1.514291204512119293e-02;-1.274141948670148849e-02;6.981619447469711304e-02;-3.902059197425842285e-01;-3.418332636356353760e-01;2.018250375986099243e-01;-1.561074405908584595e-01;-4.819823801517486572e-01;3.233423456549644470e-02;-1.105605140328407288e-01;2.947410643100738525e-01;-1.415403336286544800e-01;1.857696473598480225e-01;-1.510146409273147583e-01;1.103339120745658875e-01;-1.149212568998336792e-01;8.428113162517547607e-02;-5.102851241827011108e-02;-4.224497824907302856e-02
-2.207115739583969116e-01;-2.154404670000076294e-01;-2.205534428358078003e-01;8.766203187406063080e-03;-2.818791866302490234e-01;1.822607219219207764e-01;3.659006208181381226e-02;-8.304672688245773315e-02;-3.102428317070007324e-01;-3.745978176593780518e-01;-2.809959948062896729e-01;1.100042313337326050e-01;-1.249829381704330444e-01;1.280371099710464478e-01;-2.052835673093795776e-01;-2.111148238182067871e-01;1.024056673049926758e-01;5.586298182606697083e-02;1.078603938221931458e-01;-8.937424048781394958e-03;-3.013423979282379150e-01;-2.792989136651158333e-03;2.283497154712677002e-02;1.359378397464752197e-01;-8.329190015792846680e-01;-2.481182217597961426e-01;-1.456577032804489136e-01;1.217219755053520203e-01;-1.505407840013504028e-01;1.334955096244812012e-01;-2.934388220310211182e-01;3.271037638187408447e-01;7.114928215742111206e-02;-2.492331415414810181e-01;3.319270908832550049e-02;1.539622545242309570e-01;-3.124854564666748047e-01;-1.301084607839584351e-01;-3.321584761142730713e-01;3.744461759924888611e-02;6.171072646975517273e-02;3.323432505130767822e-01;-1.694957613945007324e-01;-5.226552486419677734e-01;1.780649870634078979e-01;-3.080905675888061523e-01;1.686842143535614014e-01;9.449113160371780396e-02;4.864241182804107666e-02;1.569757908582687378e-01;5.690517649054527283e-02;1.496841609477996826e-01;3.721561282873153687e-02;-1.985089182853698730e-01;2.720679640769958496e-01;-1.443151477724313736e-02;-2.678922116756439209e-01;7.474062591791152954e-02;-2.002836018800735474e-01;-1.994310170412063599e-01;1.513152569532394409e-01;-2.704601287841796875e-01;-1.571728587150573730e-01;-4.589870870113372803e-01;-1.540490835905075073e-01
-2.183530032634735107e-01;-2.440875619649887085e-01;-3.447393774986267090e-01;-1.256936192512512207e-01;-1.608791351318359375e-01;-8.314552158117294312e-02;2.406661808490753174e-01;4.785671457648277283e-02;6.680630147457122803e-02;-1.633662730455398560e-01;-3.836025297641754150e-02;3.476077318191528320e-01;-4.484078884124755859e-01;1.725109517574310303e-01;-1.996388286352157593e-02;-1.448933482170104980e-01;1.947801411151885986e-01;-9.611731395125389099e-03;7.258649170398712158e-02;2.887092530727386475e-01;-2.180821262300014496e-02;-1.016209796071052551e-01;-3.112299144268035889e-01;-1.055454462766647339e-01;2.118617743253707886e-01;9.145845472812652588e-02;-2.316323220729827881e-01;-9.119139611721038818e-02;2.023791521787643433e-01;2.571080327033996582e-01;2.339859157800674438e-01;1.304718106985092163e-01;1.471187472343444824e-01;-4.673721268773078918e-03;1.814612299203872681e-01;1.105172280222177505e-02;1.081422865390777588e-01;-1.284523755311965942e-01;-4.450075924396514893e-01;-5.316944122314453125e-01;-2.166481688618659973e-02;-1.990702152252197266e-01;3.297861665487289429e-02;4.168624877929687500e-01;4.085630774497985840e-01;-6.563771516084671021e-02;2.489984482526779175e-01;7.933060824871063232e-02;-3.247811496257781982e-01;-2.615861594676971436e-01;3.784838914871215820e-01;-5.362545698881149292e-02;2.166876345872879028e-01;-9.331366419792175293e-02;2.246610075235366821e-01;-2.059561908245086670e-01;-2.262961119413375854e-01;-1.756679713726043701e-01;1.715865880250930786e-01;-2.458062171936035156e-01;-3.532092869281768799e-01;-2.151231169700622559e-01;-2.741257250308990479e-01;2.603626549243927002e-01;3.191045820713043213e-01
1.792645603418350220e-01;-1.878121197223663330e-01;1.939630061388015747e-01;3.376442939043045044e-02;-1.794935762882232666e-02;1.782614886760711670e-01;-9.732308797538280487e-03;8.840306848287582397e-02;-1.232076510787010193e-01;1.413794606924057007e-01;-7.443456053733825684e-01;3.340815007686614990e-01;-7.620932068675756454e-03;1.216333806514739990e-01;-8.262546360492706299e-02;-4.072184562683105469e-01;3.032462000846862793e-01;1.240498423576354980e-01;4.704289436340332031e-01;2.436098158359527588e-01;-1.293069273233413696e-01;1.707846112549304962e-02;1.944027990102767944e-01;-1.242543160915374756e-01;-1.432439088821411133e-01;-5.794094204902648926e-01;-1.895420849323272705e-01;-4.717707037925720215e-01;1.443462669849395752e-01;1.748268604278564453e-01;2.094357758760452271e-01;9.703718125820159912e-03;2.172911763191223145e-01;-2.384117841720581055e-01;1.516894996166229248e-01;-2.039355039596557617e-01;1.999770849943161011e-01;-3.371824622154235840e-01;-1.375539004802703857e-01;-1.874087750911712646e-01;-9.229856729507446289e-02;-2.044185698032379150e-01;-5.503544956445693970e-02;-2.816062569618225098e-01;-2.721182815730571747e-02;3.186353743076324463e-01;-2.636732757091522217e-01;-3.755618631839752197e-01;-1.675009578466415405e-01;8.613014221191406250e-02;2.756587862968444824e-01;-3.909257352352142334e-01;1.992414444684982300e-01;2.291941046714782715e-01;2.722703218460083008e-01;-1.716056168079376221e-01;-1.080484837293624878e-01;-2.142855897545814514e-02;-1.648576259613037109e-01;2.471583336591720581e-01;-7.404863834381103516e-02;-2.058414518833160400e-01;1.417755186557769775e-01;-2.040546983480453491e-01;-2.370629087090492249e-02
-1.935447752475738525e-01;-2.048898115754127502e-02;1.022112742066383362e-01;1.755861751735210419e-02;-3.279046714305877686e-01;-1.980966702103614807e-02;-1.616033166646957397e-01;2.708502672612667084e-02;-7.716875057667493820e-03;3.652845919132232666e-01;-9.966350346803665161e-02;1.449502557516098022e-01;-2.680024504661560059e-01;-1.997599750757217407e-01;2.369121313095092773e-01;1.241392940282821655e-01;3.915048390626907349e-02;-6.320689618587493896e-02;-2.673048973083496094e-01;2.233619391918182373e-01;2.188318967819213867e-02;-1.181914284825325012e-01;-3.761122748255729675e-02;-1.208029985427856445e-01;8.309206366539001465e-02;-1.742917150259017944e-01;2.784686684608459473e-01;1.999155730009078979e-01;-2.350621856749057770e-02;1.838895380496978760e-01;4.762160032987594604e-02;-1.792030632495880127e-01;-1.663347780704498291e-01;-1.014717593789100647e-01;4.466288536787033081e-02;2.698826491832733154e-01;4.954504594206809998e-02;-2.497184872627258301e-01;-1.460566520690917969e-01;-9.873759746551513672e-02;-1.603187620639801025e-01;1.635231822729110718e-01;3.540170192718505859e-02;7.799783349037170410e-02;-2.720087766647338867e-02;-3.564601838588714600e-01;2.290623076260089874e-02;1.806754320859909058e-01;2.722082659602165222e-02;-2.800084948539733887e-01;-1.709046587347984314e-02;1.312773525714874268e-01;1.415776312351226807e-01;1.575491875410079956e-01;2.189329117536544800e-01;-2.112208865582942963e-03;-1.084793433547019958e-01;-4.550492018461227417e-02;-2.627327144145965576e-01;-1.654320955276489258e-01;2.961358428001403809e-01;-4.887862876057624817e-02;-2.573887109756469727e-01;1.501116007566452026e-01;4.921220988035202026e-02
1.498010009527206421e-01;6.535448133945465088e-02;3.861147463321685791e-01;-1.185319647192955017e-01;-4.591212868690490723e-01;2.982810139656066895e-02;1.099123135209083557e-01;-7.288552820682525635e-02;-2.942138314247131348e-01;-1.582731157541275024e-01;1.671473681926727295e-01;-4.970404916093684733e-05;5.343566462397575378e-02;2.752737402915954590e-01;-2.136385142803192139e-01;-8.861439228057861328e-01;1.107545047998428345e-01;-2.512675337493419647e-02;-2.082778960466384888e-01;-1.488315612077713013e-01;2.036614567041397095e-01;3.347071819007396698e-03;-8.527957797050476074e-01;3.498083055019378662e-01;-4.643430411815643311e-01;1.766363382339477539e-01;-9.703152626752853394e-02;3.822920918464660645e-01;-7.067265510559082031e-01;4.922826588153839111e-01;2.360464781522750854e-01;3.311570733785629272e-02;1.640042960643768311e-01;1.462859753519296646e-02;3.883913457393646240e-01;2.127054780721664429e-01;-3.869726061820983887e-01;3.274381756782531738e-01;-1.306565850973129272e-01;-1.853698492050170898e-01;1.555407643318176270e-01;7.392363250255584717e-02;-1.307849436998367310e-01;-2.691364288330078125e-01;-4.885308444499969482e-03;1.216565147042274475e-01;-2.146324217319488525e-01;6.713910400867462158e-02;6.521756947040557861e-02;-8.248622715473175049e-02;-1.793677806854248047e-01;-4.171410501003265381e-01;3.789317980408668518e-02;-1.286164969205856323e-01;3.173381984233856201e-01;-2.812120914459228516e-01;-3.186343610286712646e-01;-1.655964404344558716e-01;-4.207778275012969971e-01;2.559832632541656494e-01;6.497161835432052612e-02;-2.693225741386413574e-01;-1.646728962659835815e-01;2.056527584791183472e-01;9.180206805467605591e-02
1.711320877075195312e-01;-2.640483379364013672e-01;-1.690039485692977905e-01;2.483603209257125854e-01;2.157230675220489502e-01;-7.987834513187408447e-02;-7.024011760950088501e-02;1.890839487314224243e-01;1.099881082773208618e-01;-2.530728280544281006e-01;-1.445290893316268921e-01;2.881057858467102051e-01;9.804041683673858643e-02;1.415053457021713257e-01;4.290925562381744385e-01;1.452482938766479492e-01;-1.731951832771301270e-01;-3.083954565227031708e-02;2.119410783052444458e-02;-3.914472833275794983e-02;1.733753681182861328e-01;-3.297644853591918945e-01;-4.668345302343368530e-02;-1.721012294292449951e-01;3.680052235722541809e-02;-3.269940018653869629e-01;-2.391631603240966797e-01;-2.524380385875701904e-01;-2.995419502258300781e-02;-1.331386715173721313e-01;6.219178438186645508e-02;-1.249556094408035278e-01;2.864860929548740387e-02;-1.358576565980911255e-01;1.120632663369178772e-01;2.030560970306396484e-01;-2.468730807304382324e-01;-3.496555685997009277e-01;-5.602653324604034424e-02;3.434807360172271729e-01;1.694028824567794800e-01;-5.556286871433258057e-02;-5.396473407745361328e-01;-1.499623507261276245e-01;-5.127588510513305664e-01;-1.628963947296142578e-01;3.325135409832000732e-01;9.290535748004913330e-02;4.530355334281921387e-02;1.469979137182235718e-01;2.530805468559265137e-01;-8.171919733285903931e-02;3.563098236918449402e-02;-1.496860384941101074e-01;-3.732356429100036621e-01;-2.959463000297546387e-01;7.862555980682373047e-02;-1.222580373287200928e-01;-3.638717234134674072e-01;-1.832956820726394653e-01;1.881895512342453003e-01;4.832431208342313766e-03;-2.208970636129379272e-01;-1.187881231307983398e-01;-1.864701062440872192e-01
-1.235624551773071289e-01;1.863517910242080688e-01;1.134882271289825439e-01;-1.993783116340637207e-01;-1.459266692399978638e-01;-5.849606394767761230e-01;4.393847882747650146e-01;-7.334866374731063843e-02;-1.056546449661254883e+00;-1.737973242998123169e-01;-9.956794232130050659e-02;-3.406397402286529541e-01;2.690097391605377197e-01;1.902892440557479858e-01;3.260250091552734375e-01;1.150868460536003113e-01;-4.140045642852783203e-01;-3.237820267677307129e-01;7.718867063522338867e-02;-7.516667246818542480e-02;2.222082018852233887e-01;-5.777061730623245239e-02;-4.811485707759857178e-01;3.238378167152404785e-01;-4.856937751173973083e-02;6.566254049539566040e-02;3.172294199466705322e-01;-1.370792984962463379e-01;4.932114481925964355e-02;-2.519269585609436035e-01;1.645649373531341553e-01;-8.420853875577449799e-03;-2.068173289299011230e-01;-1.601514965295791626e-01;-3.820963799953460693e-01;1.383029818534851074e-01;-2.551042735576629639e-01;-8.194286376237869263e-02;-9.362683892250061035e-01;5.382350459694862366e-02;-2.980493307113647461e-01;-1.453697532415390015e-01;7.462382316589355469e-02;-3.810427486896514893e-01;-2.715631723403930664e-01;-3.413069546222686768e-01;4.765271544456481934e-01;-8.137620240449905396e-02;5.005919560790061951e-02;-2.412690408527851105e-02;-2.397745102643966675e-01;1.784213930368423462e-01;-5.911038517951965332e-01;4.327498674392700195e-01;1.636818200349807739e-01;-9.355530142784118652e-02;1.127003952860832214e-01;1.203340198844671249e-02;-1.149296993389725685e-03;1.745940931141376495e-02;-1.314979162998497486e-03;2.267935127019882202e-01;-1.443274021148681641e-01;8.543185144662857056e-02;-6.049220450222492218e-03
-1.060615256428718567e-01;-3.641888871788978577e-02;3.268845379352569580e-01;1.284578591585159302e-01;3.084380328655242920e-01;5.670177936553955078e-02;1.713458895683288574e-01;2.273898869752883911e-01;2.526590228080749512e-01;2.290190458297729492e-01;-1.551457196474075317e-01;-2.638171315193176270e-01;1.632014065980911255e-01;6.267668213695287704e-03;1.166381314396858215e-02;1.864350587129592896e-01;2.487927675247192383e-01;2.440915852785110474e-01;-6.853467226028442383e-02;-1.250776648521423340e-01;-1.431186050176620483e-01;8.628002554178237915e-02;3.747337460517883301e-01;-9.589799679815769196e-03;-1.494364999234676361e-02;4.118878394365310669e-02;1.292392015457153320e-01;-2.164416760206222534e-02;-2.568832635879516602e-01;-2.115905135869979858e-01;3.350908458232879639e-01;-4.241805523633956909e-02;-1.476615201681852341e-02;2.876320183277130127e-01;-1.751553267240524292e-01;-1.600380428135395050e-02;-6.245869025588035583e-02;2.867189347743988037e-01;-1.610532402992248535e-02;-2.963016629219055176e-01;1.649161875247955322e-01;-1.614769361913204193e-02;2.387630939483642578e-01;-1.349849402904510498e-01;-2.667694985866546631e-01;1.389068067073822021e-01;-1.992400586605072021e-01;-4.259664416313171387e-01;1.496985107660293579e-01;2.078642696142196655e-01;-1.450613490305840969e-03;1.133338361978530884e-01;-2.098267227411270142e-01;2.704417891800403595e-02;2.153213135898113251e-02;2.877012789249420166e-01;4.514376819133758545e-02;-1.876940280199050903e-01;2.203468680381774902e-01;2.661992609500885010e-01;-4.143060743808746338e-01;1.781209111213684082e-01;1.407305449247360229e-01;-1.489799618721008301e-01;-7.265479117631912231e-02
